54 300
NN -0.070628 0.02876 0.020171 -0.053664 -0.017463 -0.00055678 -0.025239 0.014153 0.0073419 0.088948 0.10237 0.026834 0.067139 0.022058 0.016477 0.088771 -0.082042 -0.082513 -0.04381 0.029237 0.070506 -0.012071 0.05771 0.0054646 -0.019949 -0.050842 -0.04334 -0.080352 -0.076177 0.022211 -0.035347 0.0055621 -0.039817 -0.0006693 -0.094085 0.012028 -0.081986 0.0025838 0.0092441 0.034083 0.061853 0.035683 0.15391 0.10019 0.010991 -0.015518 -0.034479 0.0132 -0.013028 0.015085 0.0029877 0.029101 -0.053 -0.0070025 -0.080169 0.081835 -0.061275 -0.019501 -0.0022165 0.052325 -0.077415 0.046372 0.0058966 -0.038084 -0.030117 -0.03927 0.0020599 0.043653 -0.023331 0.020772 0.054518 -0.013537 -0.10378 -0.018549 0.044563 -0.089041 0.0092167 0.026064 0.12873 -0.024698 0.033615 -0.018889 0.081644 -0.078183 -0.036402 -0.035319 -0.019256 0.054314 -0.0053402 0.035777 0.028244 -0.018836 0.1383 -0.036172 0.031635 0.00089755 0.090006 -0.038162 -0.029164 0.032993 0.00022679 -0.030119 0.026324 0.10296 0.015759 0.17671 -0.016315 0.067169 0.020141 -0.011658 0.028121 -0.032518 -0.013801 0.02946 0.01254 -0.029866 0.017394 0.020981 -0.038878 0.022307 -0.053901 -0.034027 0.043563 0.086391 -0.052328 -0.054868 -0.04974 0.092052 -0.10164 0.090518 0.11141 -0.03085 0.014957 -0.047519 0.039524 -0.05722 -0.022129 -0.027863 0.12107 -0.068852 -0.13155 0.041483 0.078838 0.033479 0.064068 0.01578 0.08735 0.033947 -0.029576 0.014172 -0.053433 0.012287 0.049723 0.013429 0.069485 -0.092137 0.023086 -0.012569 0.038462 -0.0054833 -0.055785 -0.040784 0.052733 0.067279 7.9706e-05 0.037486 -0.01534 -0.032783 0.017805 0.12887 -0.028271 0.06724 0.064477 0.0016698 0.013049 -0.074115 -0.072884 -0.0087962 0.082788 0.045475 0.013973 -0.0040779 -0.057079 0.054328 -0.051744 0.09106 -0.035323 -0.052143 0.03422 -0.050636 0.10342 0.057326 0.046176 -0.14135 0.070989 -0.054951 0.045732 -0.0068197 0.12647 -0.067758 -0.014846 -0.045369 0.087247 -0.063795 -0.018213 -0.12242 -0.078705 0.0074042 -0.045705 -0.061166 -0.13701 0.014622 -0.081607 0.0084542 -0.064688 0.0095113 0.0027182 -0.021369 -0.019177 -0.030144 0.023802 -0.080938 0.033939 -0.13613 0.035129 -0.0027487 0.042828 0.024709 0.033911 0.0078934 -0.053553 0.0086271 -0.056283 -0.085249 0.033972 -0.014577 0.044453 -0.021181 -0.0067843 0.10054 -0.043528 -0.075388 -0.016038 0.059666 0.11595 -0.0023547 0.083597 0.028148 0.010312 0.028106 0.0087493 0.0041685 -0.11454 0.002822 0.03888 -0.034698 0.02487 -0.059248 -0.013697 0.047144 -0.10107 0.027669 0.051587 0.048563 -0.049546 9.0106e-06 -0.011799 -0.024589 -0.0029336 0.10644 0.039903 -0.010062 0.0036045 -0.082932 -0.016785 -0.049389 -0.035257 0.10517 0.044602 0.040195 0.062843 0.042949 -0.056965 0.036974 0.0037622 -0.04137 0.0083567 0.072311 -0.004596 -0.038804 0.043409 0.015122 0.015935 -0.010172 -0.072942 -0.049528 -0.024918 0.0095925 -0.062811 -0.058686 
ART -0.20971 0.019756 0.014117 -0.043045 -0.021143 0.004667 -0.16805 -0.011688 0.011922 0.048669 0.06047 0.01469 0.07498 -0.0087513 0.009559 0.021614 -0.041434 -0.021572 -0.0045627 0.007674 0.021604 0.063009 0.011568 0.0049203 -0.02885 -0.099855 -0.082178 -0.036114 -0.034598 -0.0066506 -0.069933 -0.020254 -0.0055053 0.0069553 -0.079118 -0.027554 -0.027575 -0.083218 0.015794 0.016061 0.046326 0.044482 0.091811 0.039529 -0.064094 0.0086653 0.041633 0.079597 -0.012401 0.0037167 -0.019818 0.043117 -0.057708 -0.019426 -0.022172 0.013017 -0.050555 -0.032063 -0.029798 0.061352 -0.018995 -0.0035637 0.028148 -0.0069498 -0.023849 -0.049296 0.05807 0.030536 -0.069167 -0.0015454 0.0048781 -0.00037341 -0.029018 -0.018966 0.038299 -0.039515 0.020191 0.072815 0.098679 -0.070443 0.0421 -0.0030006 0.066077 -0.079555 -0.015225 -0.032909 -0.059677 0.00070346 -0.062517 0.016146 0.0092552 0.00532 0.077439 0.011255 0.017205 -0.038577 0.028491 0.0073217 -0.052101 0.034353 0.0025912 -0.036748 0.02672 0.055343 -0.018069 0.12292 -0.10363 0.05769 0.037124 -0.039314 -0.075093 -0.051867 -0.097927 -0.049391 0.011238 -0.089156 0.033596 0.013127 -0.05238 -0.014357 -0.026501 -0.084486 0.052954 0.070488 -0.052753 -0.091297 -0.0064418 0.056845 -0.11756 0.058843 0.07005 0.0034955 0.0072663 -0.03357 0.030531 0.023437 -0.058021 -0.020948 0.070282 -0.063575 -0.13244 0.070529 0.078832 0.046428 0.057071 0.027485 0.043089 0.017254 -0.095387 0.061614 -0.049742 0.017344 0.086731 0.062614 0.027405 -0.066249 -0.023206 -0.0080415 0.06533 0.023123 -0.045128 -0.025242 0.042427 0.0053946 0.00321 0.076855 -0.0066871 -0.095494 0.076213 0.05903 -0.032106 0.0028916 0.00013613 0.012213 -0.017353 -0.094266 -0.0046759 0.013051 0.10837 0.020248 -0.027957 -0.0066264 -0.076595 0.014534 0.025085 0.038579 0.021469 -0.056362 -0.021411 -0.00048437 0.070975 0.018744 0.044953 -0.067071 0.088825 0.038087 0.034187 -0.017273 0.094787 -0.067198 -0.0088138 -0.034635 0.081046 -0.010982 -0.072973 -0.025922 -0.05719 -0.063554 -0.021936 -0.0029646 -0.10335 0.023271 -0.066792 0.059164 -0.0091221 0.020025 -0.064082 -0.069091 -0.04434 -0.01349 -0.0069288 -0.056951 0.055738 -0.087599 0.027268 -0.07376 0.0646 -0.022513 0.0022614 0.041029 -0.035759 0.0030655 -0.097075 -0.080717 0.08884 -0.049967 0.021963 0.00098598 0.0053717 0.062549 0.0010506 -0.0088688 -0.0038316 0.077271 0.081465 0.0092818 0.036188 0.072701 0.034225 0.071674 -0.017404 0.016992 -0.042788 -0.029978 0.0015335 -0.0074478 -0.021376 -0.020915 0.0058076 -0.034543 -0.06324 -0.0062351 0.033432 -0.022831 -0.012378 -0.014594 -0.097302 -0.024055 -0.10368 0.0047174 0.04249 -0.054551 -0.0077877 -0.15583 -0.0088157 -0.062758 0.032854 0.05787 0.031571 0.039173 0.040485 0.0032482 -0.017105 -0.081025 0.041882 -0.025785 -0.001833 0.1087 0.0072794 0.024389 0.0017705 0.0085623 0.026492 -0.015228 -0.0039506 -0.050131 -0.0041646 0.016482 -0.011024 0.016134 
APPR -0.075444 0.037677 0.033512 -0.042616 -0.02744 0.030478 -0.068604 -0.0094977 -0.010922 0.12668 0.12616 0.033509 0.078315 0.014479 0.05543 0.055336 -0.071654 -0.07436 -0.0062034 0.0087924 0.057777 -0.00038406 0.015299 0.01147 -0.016677 -0.060476 -0.067385 -0.035698 -0.094585 -0.028216 0.00077929 0.015486 -0.0030568 -0.029201 -0.08848 -0.048305 -0.075706 -0.053543 0.016517 0.078326 0.067642 0.029478 0.091162 0.029563 0.0080586 -0.024873 0.031864 0.07926 -0.017666 0.0033239 -0.039093 0.032231 -0.067507 -0.037687 -0.045705 0.027136 -0.083452 -0.056289 -0.007605 0.092453 -0.090953 -0.0025923 0.035034 -0.010553 0.013398 -0.060456 0.058766 0.039945 -0.073322 0.033727 0.027784 -0.01059 -0.071349 -0.005101 0.049485 -0.05866 -0.0098242 0.079311 0.11664 -0.056242 0.045691 -0.0042682 0.076646 -0.1127 -0.030858 -0.021507 -0.0050975 0.009772 -0.0077667 0.031887 -0.025941 0.0038247 0.13904 -0.058652 0.015649 -0.043506 0.054596 -0.053506 -0.02886 0.040979 -0.0080248 -0.017601 0.0058798 0.064683 0.034036 0.13912 -0.048107 -0.0019514 0.037602 -0.065533 -0.041189 -0.075748 -0.054508 0.0023344 0.035572 -0.099391 0.018749 -0.0088649 -0.09935 -0.01912 -0.037884 -0.020758 0.05494 0.079565 -0.059234 -0.083404 -0.044222 0.041133 -0.1282 0.087454 0.084729 -0.0020917 0.0077562 -0.0015714 0.036811 -0.013239 -0.027339 -0.024986 0.093421 -0.05768 -0.15895 0.096593 0.072833 0.026386 0.073995 0.036304 0.05278 0.044511 -0.060459 0.087986 -0.083362 0.079083 0.031432 0.013647 0.01003 -0.08352 0.041963 0.012389 0.031844 -0.016445 -0.0083712 -0.0101 0.066243 0.058852 0.062016 0.071986 0.004923 -0.056985 0.043927 0.11668 -0.034142 0.04762 -0.0086281 -0.00019298 0.011885 -0.070777 -0.071406 -0.010136 0.11509 0.079089 -0.054997 -0.019996 -0.021874 0.031137 0.012282 0.10738 0.0060879 -0.074501 0.071249 -0.017884 0.090497 0.031638 0.027499 -0.083398 0.082289 -0.015649 0.023687 -0.026838 0.14711 -0.060572 0.013928 -0.068444 0.075999 -0.018853 -0.019318 -0.10267 -0.088464 -0.0017839 -0.0027651 -0.025319 -0.147 -0.027707 -0.13625 0.027005 -0.026328 0.048411 -0.045375 -0.040485 0.0095361 -0.031807 0.049097 -0.058246 0.033145 -0.11968 0.049295 -0.00067387 0.089695 -0.010362 0.017288 -0.0081552 -0.055169 0.027026 -0.067302 -0.10143 0.024614 -0.034831 0.080605 -0.010339 0.039166 0.041971 -0.037716 -0.011121 0.035074 0.092539 0.040459 -0.033424 0.067468 0.014333 0.014766 0.052014 -0.024171 0.060647 -0.091699 -0.043564 0.013052 -0.019788 -0.042577 -0.012434 0.013194 0.028921 -0.11488 -0.013299 0.0245 0.087324 -0.010389 0.017166 -0.047489 0.019097 -0.043983 0.082107 0.024706 0.0031028 0.0046129 -0.1155 0.010108 -0.077972 -0.063968 0.11184 0.03192 0.069327 0.075471 0.051783 -0.027331 -0.021812 0.033348 -0.057296 -0.024664 0.064084 0.0022413 -0.041197 0.029531 -0.0017566 -0.016364 -0.027288 -0.052735 -0.078791 -0.049384 0.00495 -0.037336 -0.028604 
ADJA -0.25152 0.042232 0.033748 -0.086271 -0.029037 0.03887 -0.20926 -0.0045588 0.029324 0.084544 0.068198 -0.0086288 0.10075 -0.0082709 0.037811 0.052793 -0.088191 -0.069991 0.010791 0.020076 0.043136 0.052202 0.019239 0.017528 -0.05005 -0.061988 -0.090243 -0.063484 -0.068939 -0.013211 -0.043086 0.0035389 0.0011747 0.011746 -0.072659 -0.017675 -0.05053 -0.025103 -0.027838 0.060901 0.04276 0.019911 0.10258 0.061612 -0.0045097 -0.0089326 0.019609 0.05545 -0.0044062 0.00397 -0.021122 0.052168 -0.048624 -0.02493 -0.047586 0.029218 -0.070156 -0.038387 -0.0039515 0.059286 -0.071706 0.04677 0.012291 -0.0015682 -0.035602 -0.046061 0.036297 -0.015599 -0.049593 0.001014 0.043705 -0.019581 -0.069998 0.0012863 0.040591 -0.051021 -0.016718 0.058728 0.12831 -0.054527 0.046941 -0.041131 0.059734 -0.080301 -0.032527 -0.033585 -0.020867 0.026483 -0.03275 0.048202 -0.00032284 -0.016417 0.089637 -0.016392 0.0038374 -0.012254 0.047605 -0.032969 -0.030192 0.040201 -0.033777 -0.043188 0.0047473 0.082022 0.0066709 0.13198 -0.064744 0.044201 0.026007 -0.030779 -0.037916 -0.039573 -0.057546 -0.00087427 0.03368 -0.049366 0.00050216 0.035675 -0.044373 -0.0059725 -0.042734 -0.04907 0.040371 0.084684 -0.043887 -0.069337 -0.020434 0.11463 -0.10682 0.041572 0.10311 -0.01954 0.0019445 -0.030044 0.049486 -0.0012951 -0.049079 -0.018215 0.080427 -0.063244 -0.129 0.040696 0.082179 0.044192 0.041022 0.03151 0.035205 0.0072369 -0.041576 0.053244 -0.052411 0.044795 0.055517 0.050925 0.054048 -0.10004 0.0061849 -0.017342 0.023366 0.0083658 -0.043179 -0.04577 0.038174 0.029954 -0.0092416 0.080278 -0.034752 -0.06991 0.012059 0.10613 -0.042339 0.047413 0.025063 0.013188 -0.0010356 -0.074258 -0.047096 -0.0011971 0.08325 0.017949 -0.0085676 -0.00041917 -0.060356 0.045034 -0.03558 0.074832 -0.0075426 -0.048577 0.03277 -0.040915 0.051407 0.01581 0.043184 -0.13471 0.048841 -0.013365 0.059563 -0.0080806 0.12245 -0.044551 -0.025459 -0.054686 0.061872 -0.024862 -0.036794 -0.086718 -0.074565 -0.027168 -0.04133 -0.023984 -0.11773 0.010234 -0.089894 0.017182 -0.023445 0.015942 -0.055282 -0.049395 -0.034994 -0.030461 0.017072 -0.055464 0.048882 -0.14091 0.053743 -0.012956 0.053747 -0.0018326 0.044735 0.0081446 -0.048716 0.042947 -0.04547 -0.097094 0.064206 -0.017757 0.065761 -0.014276 0.016206 0.083169 -0.012776 -0.057819 0.011063 0.10423 0.077801 -0.024264 0.064749 0.035261 0.0080944 0.040287 -0.023995 0.0062599 -0.096903 0.0011059 0.0050241 -0.021898 0.0010369 -0.02978 -0.0015127 0.0048513 -0.078695 -0.0096633 0.016366 0.020039 -0.017288 -0.0084591 -0.022284 -0.026683 -0.0089823 0.079022 0.059214 -0.030795 0.0049521 -0.11646 0.005176 -0.058751 -0.023435 0.093597 0.01415 0.062579 0.053971 0.015909 -0.046118 0.0019121 0.022979 -0.026418 -0.008432 0.068367 -0.020002 -0.0058107 0.033892 -0.0076232 0.00051404 -0.014456 -0.039194 -0.0374 -0.019431 0.017835 -0.022351 -0.01863 
NE -0.10985 0.042173 -0.083348 -0.0172 -0.0091542 0.061598 -0.085124 0.0067788 -0.019985 0.11636 0.18059 0.041869 0.25493 0.0061678 0.087126 0.087394 -0.023761 -0.11137 -0.017179 -0.039015 0.012283 0.10485 0.041017 0.02245 -0.037391 -0.077022 -0.11142 -0.083197 -0.044767 0.056112 -0.14215 -0.12856 -0.064746 -0.046066 -0.0654 0.016447 -0.035193 -0.019803 0.054451 0.039433 0.0096769 0.045072 0.074092 0.048395 0.010757 -0.025539 -0.0094245 0.076507 -0.094864 0.082509 0.039625 0.030738 -0.11201 -0.088642 -0.04139 -0.0078284 -0.10623 -0.047898 0.0076477 0.046226 -0.00086093 -0.0019849 -0.0054728 -0.052835 0.068119 -0.027472 0.0061283 -0.0057755 -0.09074 0.0099573 0.082097 0.0039207 -0.041671 -0.0071769 0.11448 -0.059067 0.038463 0.062467 0.17084 -0.0040675 0.0025094 -0.074308 0.10805 -0.060704 0.0012317 -0.10493 -5.7156e-05 -0.03044 -0.066338 -0.00070456 -0.027341 -0.017665 0.14506 0.02147 -0.091345 0.03943 0.096632 -0.10193 -0.029302 0.059844 -0.017792 -0.076035 -0.02743 0.10221 -0.0094098 0.014078 -0.01648 0.0052283 0.03389 0.084038 -0.055319 -0.057585 -0.077907 0.077043 -0.081261 -0.12128 0.019276 0.086643 -0.036023 0.021071 -0.20905 -0.050718 0.012692 0.081132 -0.089415 -0.11738 -0.0052169 0.12245 -0.030837 0.093533 0.12989 -0.0033716 -0.050287 -0.086881 0.038302 0.041438 -0.16962 -0.070892 0.063705 0.048359 8.1729e-05 0.080108 0.036013 0.049626 0.11908 0.022385 0.00031227 0.025595 -0.078793 0.066213 0.0087841 0.0042693 0.094853 0.037716 -0.0078764 -0.061551 0.089107 -0.023701 -0.03582 -0.023708 -0.063569 0.02102 0.035811 0.05318 0.032821 0.058138 0.083484 -0.10188 0.090952 -0.0077379 -0.045338 0.044889 0.14654 0.036843 0.0043864 -0.06678 -0.091833 -0.043418 0.027369 -0.018371 0.031157 0.06897 -0.080571 0.14229 0.028559 0.089475 -0.019755 -0.11047 -0.060312 0.026564 0.12604 0.054474 -0.00033961 -0.095093 0.0055706 -0.0041043 0.086979 0.061224 0.069054 -0.033612 -0.084031 -0.065164 0.048414 -0.08955 -0.022289 -0.092142 -0.10792 -0.11966 -0.049984 -0.049352 -0.1347 0.012145 -0.2124 -0.033077 0.018449 -0.026994 -0.05364 0.034317 -0.1052 0.039634 -0.032382 -0.0036423 -0.031122 -0.14797 0.10439 -0.032957 0.14691 0.023419 0.10313 0.051711 -0.0293 0.10795 -0.052659 -0.15511 0.16041 -0.036384 0.047843 0.020938 0.066577 -0.02012 -0.00013408 0.020272 0.015149 0.14229 0.019113 -0.029709 0.054502 0.09974 0.085945 0.065238 -0.064184 -0.019305 -0.019532 -0.077944 -0.022594 -0.055245 -0.092707 0.076179 0.0063679 -0.0962 -0.083908 -0.054864 0.045862 0.090044 -0.030127 -0.0051462 0.026412 -0.0053257 -0.043219 0.096632 0.054123 -0.027239 -0.12641 -0.194 0.029739 -0.10438 -0.016143 -0.0019416 0.065671 0.083168 0.12425 -0.06447 -0.055496 0.043898 0.031822 -0.027441 -0.017251 0.10385 0.010687 -0.039859 -0.0099316 -0.037527 -0.086837 -0.010513 -0.0087206 -0.13231 0.087836 -0.0049013 0.062463 0.020945 
</s> 0.079542 0.00078118 0.026329 -0.099542 0.088259 0.074959 -0.076447 -0.091673 -0.096387 0.16813 0.13392 -0.025467 0.023128 0.042252 0.093271 0.12733 -0.09653 -0.1118 -0.12032 -0.060031 0.17254 -0.088274 -0.0051308 0.064279 -0.0082548 -0.0023283 -0.12981 0.069814 -0.15007 -0.054207 0.035252 0.078506 0.094274 0.0042468 -0.1034 -0.11013 -0.092054 -0.12396 0.095766 0.14926 -0.013461 0.084936 0.20419 0.10279 -0.040936 -0.077687 0.030409 0.11329 -0.0026736 0.050361 -0.0062331 0.091901 -0.020797 -0.088036 -0.0036252 0.04327 -0.075827 -0.12756 0.035641 -0.027397 0.056694 -0.13401 -0.094793 -0.011769 0.048045 -0.10324 0.08042 0.082506 -0.10688 0.044049 0.064065 0.052495 -0.086134 -0.050892 0.14468 -0.060845 -0.061936 -0.14174 0.027496 0.011577 -0.011758 0.17307 0.13662 -0.086842 0.022072 -0.072854 0.0018104 -0.075099 -0.019258 -0.12822 -0.091168 -0.013065 0.11565 -0.1115 0.039435 0.049015 0.0038701 -0.06178 0.055443 -0.0077752 0.0020582 -0.013774 -0.093316 0.047325 -0.018662 0.12013 0.046872 -0.034869 0.12503 0.045848 0.03915 0.054884 -0.12007 0.026881 0.035582 -0.12543 0.034366 0.0041606 -0.14159 0.0071398 0.036935 0.07991 0.13076 0.13997 -0.014041 -0.021405 0.040403 0.066762 -0.17503 0.11306 0.20596 -0.0849 0.025123 -0.055426 -0.04445 -0.044208 -0.036348 -0.067753 0.084604 0.048407 -0.10789 0.074872 0.071058 0.12345 0.13906 0.053568 0.024629 0.063179 -0.015658 -0.028087 0.027603 0.0034937 0.10079 -0.022523 0.0315 -0.066765 0.086319 -0.019705 0.095359 0.0011643 -0.045652 -0.065416 0.11279 0.11338 0.068688 0.055526 0.10892 0.039732 0.061991 -0.011112 -0.10917 0.0095002 0.045362 0.075884 0.0021208 -0.010934 0.0034876 -0.038511 0.088744 0.086038 -0.043667 0.00035856 -0.015409 0.12175 0.044811 0.14008 -0.10565 -0.16383 0.042694 0.057356 0.13181 0.065028 0.15027 0.039301 0.12722 -0.099301 -0.021576 0.081097 0.081284 -0.06065 0.056997 -0.076516 0.029227 0.034974 -0.016397 -0.20115 -0.079637 0.072446 0.013826 -0.11993 -0.077402 0.05084 -0.1066 0.027909 -0.094349 0.1098 0.062258 0.034629 0.064919 -0.050245 0.0042552 0.0097235 -0.039291 -0.051767 -0.063121 0.04205 0.0095397 -0.072032 -0.03914 0.044628 -0.036219 -0.064295 -0.018005 -0.064807 0.0085684 -0.066102 0.10247 0.083369 0.023032 -0.07564 0.067451 0.0043304 0.0040872 0.052913 0.02105 0.0014903 0.078193 0.01804 -0.086387 -0.035669 -0.0056535 0.060516 -0.034248 -0.04324 0.14001 -0.082296 -0.0075586 0.031606 -0.10296 -0.00051129 -0.1254 -0.011152 0.10966 0.066859 -0.092575 0.10542 -0.0095132 0.070854 -0.085722 0.066295 -0.019839 0.077841 0.022938 -0.080739 -0.053279 -0.11997 -0.023011 0.027432 0.10937 0.088809 0.041677 0.0050404 0.024807 -0.14293 0.022326 -0.065786 0.13445 0.054756 0.066321 -0.049827 0.021777 -0.15532 0.094809 0.011385 -0.0075816 -0.062756 0.05189 0.00080429 -0.054157 -0.020046 
$. -0.12438 0.043855 0.0472 -0.08437 -0.013102 0.16467 -0.21915 0.089244 0.031963 0.091178 0.046014 0.074378 0.058027 -0.0097337 0.023344 0.051135 0.057063 -0.11621 0.0055747 0.097115 -0.035481 0.044021 0.10381 -0.14779 0.0062403 -0.0063127 -0.03286 -0.09608 -0.062533 -0.021504 -0.02178 -0.081596 -0.12994 0.044512 -0.013973 -0.093624 0.062175 -0.081135 0.14733 0.057076 0.046381 0.027174 0.041275 0.09741 0.053593 0.090404 -0.0035995 0.052284 -0.10299 -0.050064 -0.032765 -0.057644 -0.084629 0.035057 -0.098881 -0.088018 -0.065415 -0.074518 0.0057932 0.15291 -0.10669 0.052193 0.022903 -0.13302 -0.062456 0.10606 -0.1281 0.13712 -0.063147 0.067954 -0.089968 -0.11577 0.12495 0.088498 0.00039859 -0.032932 -0.037201 0.12192 0.045781 -0.1496 0.063681 0.026165 0.058834 -0.098136 0.071351 0.039868 0.013425 0.12527 -0.0028456 0.10664 0.04689 -0.079237 0.1582 -0.044735 -0.014784 -0.10773 0.04523 -0.047476 -0.11829 0.096226 -0.044594 -0.03567 0.048602 0.043769 0.039862 0.072665 0.073697 0.12028 0.012424 -0.073253 -0.084586 -0.15673 -0.14555 0.0031967 -0.02304 -0.11928 -0.0093979 -0.055796 -0.13099 -0.060099 -0.010593 -0.043756 0.015539 0.12097 -0.10509 -0.14137 -0.14235 0.072813 -0.17246 0.13662 0.010372 0.068925 0.058331 0.015558 0.12331 -0.018011 -0.059396 0.0052517 0.033526 -0.072085 -0.1427 0.097716 0.11218 0.096455 0.091298 0.0053705 0.078507 -0.029464 -0.15699 0.033835 -0.14812 0.011282 0.043606 0.010656 0.041495 -0.055879 -0.034145 0.044516 0.18706 -0.010713 -0.097749 -0.036448 -0.011458 0.036734 0.045121 0.013372 0.031265 0.013956 0.012778 0.18664 -0.091114 -0.045776 -0.16152 -0.096403 -0.060439 -0.10416 -0.074311 0.0089351 0.039916 0.07148 0.072884 -0.045785 0.077072 -0.01877 -0.0090395 0.14553 -0.01787 -0.080407 0.019964 -0.0679 0.053001 -0.10463 0.087374 -0.13006 0.074718 0.019272 -0.073126 -0.0061668 0.069176 0.016975 0.028192 -0.045508 0.0099264 -0.055304 0.10656 -0.041196 -0.064028 0.014237 -0.038007 -0.0017267 -0.15864 -0.11758 0.010138 0.068142 0.055176 -0.077767 -0.037254 0.038417 0.099249 0.20328 -0.09911 -0.062825 0.12726 -0.060817 0.12121 -0.1041 0.16793 0.0036158 0.020421 0.032304 -0.0065165 0.023552 -0.11412 -0.090278 0.033655 -0.12114 0.11226 -0.0065875 0.10629 0.014632 -0.058212 0.030178 -0.01512 0.046949 -0.025325 0.065203 0.013356 0.021795 0.074539 0.07994 -0.018081 -0.011601 0.033342 -0.070888 -0.018892 0.020008 -0.069857 0.049897 -0.037789 -0.024415 -0.10296 0.044627 -0.029152 0.0025204 0.0090563 0.0091218 -0.10613 -0.060201 -0.081073 0.0025784 0.077452 -0.029036 0.006487 -0.09016 -0.021046 0.039756 -0.00033768 0.033808 -0.0057643 -0.016707 0.045495 0.10265 0.0058497 0.013443 -0.023774 -0.11084 0.030159 0.089184 0.01322 -0.064721 -0.11672 0.0085915 -0.095953 -0.072112 -0.12958 -0.072978 0.0032029 -0.036478 0.076556 -0.096976 
$, -0.023158 0.037526 -0.0538 0.002453 0.021813 0.088901 -0.13123 -0.011386 -0.073644 0.044947 0.081987 0.033845 0.030857 -0.011907 -0.00043008 -0.0048036 -0.025093 -0.037897 -0.070143 -0.030626 0.10734 -0.024681 0.039853 0.012656 -0.042991 -0.076915 -0.025398 0.02653 -0.059286 0.037135 -0.018484 0.0021703 0.027584 0.059905 -0.069287 -0.024669 0.023402 -0.10275 0.0128 0.081174 -0.0020614 0.071842 0.10503 0.015226 0.029285 -0.010481 -0.012138 0.031745 -0.004779 -0.034273 -0.031812 0.024993 -0.019504 -0.034209 -0.044844 0.048696 -0.03765 -0.038753 0.010204 0.10286 0.0051136 -0.051455 0.021169 -0.024633 0.0089835 -0.053023 0.093318 0.048411 -0.045191 0.01125 0.070977 0.034949 0.018583 -0.03925 0.076032 -0.022106 0.034583 -0.00057877 0.063688 -0.0425 0.044379 0.030041 0.076194 -0.10838 0.022405 -0.035753 -0.059536 0.021557 -0.051252 -0.028275 -0.014407 -0.044255 0.12772 -0.062555 0.079247 0.017383 0.00928 0.0088108 -0.067512 -0.0017759 -0.055888 -0.048232 0.042417 0.052475 -0.045211 0.10953 -0.00015045 0.076783 -0.0073832 -0.024915 -0.039643 -0.014573 -0.10932 -0.039785 0.032313 -0.038304 0.043492 -0.026767 -0.083997 0.014465 0.058352 -0.012598 0.037576 0.058589 -0.036466 -0.041224 -0.030721 0.080127 -0.13409 0.068685 0.14187 -0.0089647 0.013654 -0.037896 0.025547 0.0075427 -0.087998 -0.02122 0.0073375 -0.0045142 -0.11485 0.09069 0.017614 0.021629 0.096299 -0.015325 0.072735 0.062374 -0.095005 0.0072983 -0.0054698 0.030752 0.070775 0.066091 0.019034 -0.049988 -0.043845 0.022677 0.10746 -0.00057725 -0.046584 -0.028445 -0.00025425 0.089607 0.05024 0.023995 -0.0062451 -0.053448 0.063881 0.054451 -0.034911 -0.034411 -0.038588 0.028205 -0.080113 -0.13734 0.023029 0.002154 0.10218 0.020234 -0.026874 -0.027697 -0.11017 0.06479 0.050406 0.097076 0.055657 -0.072246 -0.0087341 -0.00907 0.049413 0.035762 0.0098583 -0.0477 0.14704 0.063715 0.026241 -0.0052877 0.068744 -0.12485 0.057579 -0.033284 0.06293 -0.011429 -0.023756 -0.07163 0.0037867 0.0046035 -0.064728 -0.034712 -0.061671 0.019856 -0.087253 0.02833 -0.015434 0.053912 0.00047818 -0.033008 0.04305 -0.00059142 -0.044096 -0.002498 0.036173 -0.10228 -0.01573 -0.065013 -0.035084 -0.035709 -0.02544 0.013099 -0.034651 -0.046049 -0.1169 -0.077861 0.055135 -0.082261 0.073543 0.035226 -0.029393 0.023251 -0.013996 0.013786 0.027192 -0.04672 0.0055593 0.045583 0.02431 0.018036 0.018391 0.043039 -0.016414 0.050254 0.0090352 -0.073884 0.038591 -0.0052603 -0.013332 0.0087346 1.8499e-06 0.073439 -0.015899 0.055714 0.051894 0.0022035 -0.022833 0.014487 -0.11912 0.0056993 -0.10768 0.0065459 0.012101 -0.0031749 -0.06152 -0.13535 -0.062983 -0.024819 0.0062825 0.025591 0.060896 -0.0076298 -0.025788 -0.03538 -0.0062573 -0.084858 0.060972 -0.016784 0.065631 0.18847 -0.0092843 -0.009528 0.010239 -0.05276 0.024673 0.0026466 -0.026491 -0.077282 0.068668 -0.045585 0.080463 -0.035476 
ADV -0.23817 0.086158 -0.01609 -0.10361 0.0067443 0.11987 -0.27935 -0.038075 -0.02785 0.057429 0.080764 0.0079028 0.0067194 0.0015448 -0.028875 0.053642 -0.10107 -0.064238 -0.079268 -0.0085065 0.12521 -0.0054453 0.045477 0.031935 -0.063495 -0.10501 -0.055154 0.0031696 -0.034912 0.035681 -0.018674 0.023452 0.06015 0.074592 -0.1013 0.021929 -0.018554 -0.058758 -0.032263 0.021401 0.03236 0.069357 0.11579 0.049021 -0.016715 -0.01848 -0.0020197 -0.020388 0.0042393 -0.0050606 -0.015369 0.047238 0.010074 -0.024738 -0.067508 0.078282 -0.0065861 -0.039832 -0.01926 0.017129 -0.018398 -0.031967 -0.032953 -0.01039 -0.054743 -0.056782 0.069751 0.027635 0.011766 0.0087913 0.03891 0.033339 -0.052516 -0.052157 0.076014 -0.039292 0.037997 -0.031148 0.060787 -0.042965 0.024522 0.045825 0.063253 -0.063077 0.0017314 -0.038788 -0.088089 0.051928 -0.018471 -0.0098056 0.012262 -0.040797 0.041355 -0.033497 0.077481 0.010076 0.042826 0.041216 -0.0053555 0.011128 -0.049876 -0.055378 0.020641 0.055274 -0.038659 0.15028 -0.018784 0.05421 -0.010007 -0.0087923 -0.0035757 -0.0048502 -0.040505 -0.050891 0.0059178 0.028894 0.017693 -0.014816 -0.064263 0.035314 0.063308 -0.017191 0.06417 0.11332 -0.021139 -0.012826 -0.0024485 0.065623 -0.11382 0.038236 0.10548 -0.051771 0.042323 -0.03228 0.020837 -0.044651 -0.045508 -0.0048335 0.060615 -0.033327 -0.099028 0.03469 0.046714 0.03027 0.067009 -0.0053147 0.056599 0.028246 -0.021984 -0.01561 -0.0067516 0.018862 0.035134 0.040184 0.096493 -0.076857 -0.018011 -0.013646 0.096928 0.00023683 -0.059849 -0.049485 0.023167 0.057849 0.0068434 0.021302 -0.029916 -0.028474 0.011258 0.085673 -0.043163 0.02049 -0.0017324 0.04017 -0.047062 -0.092615 0.025959 0.026885 0.082133 0.017847 -0.034331 -0.012649 -0.10874 0.058183 -0.043401 0.076008 0.0074134 -0.036512 0.026875 -0.044291 0.041879 0.057672 0.022439 -0.058309 0.1335 -0.013526 0.0084553 -0.0072586 0.062685 -0.096276 0.0089592 -0.032133 0.095899 -0.0029309 -0.070525 -0.12472 -0.024692 0.0040491 -0.076991 -0.015622 -0.082441 0.058608 -0.074702 0.033636 -0.045046 0.068067 0.030102 -0.046934 0.029571 -0.046277 -0.015918 -0.03725 0.060043 -0.07773 -0.020546 -0.02462 -0.033326 -0.046542 0.011531 -0.001393 -0.03278 -0.087577 -0.081701 -0.065877 0.040363 -0.044439 0.043083 0.028356 -0.039898 0.07588 -0.040833 -0.047048 0.0039627 0.013732 0.11891 0.022299 0.079056 0.046864 -0.03548 0.032504 0.019511 0.026783 -0.084408 -0.024089 0.04683 -0.014758 0.0367 -0.044094 -0.02874 0.061818 -0.039686 0.020797 0.060878 -0.021326 -0.072791 0.027488 -0.072947 -0.0063898 -0.063695 0.065224 0.049989 -0.026595 0.0095507 -0.098892 -0.051309 -0.040169 0.016327 0.097552 0.058106 0.029588 -0.023397 0.012141 -0.015315 -0.054674 0.059485 -0.027088 0.06791 0.1087 -0.0031097 0.01181 0.045752 -0.05461 0.072318 -0.011883 -0.036247 -0.055993 0.04499 -0.0075135 -0.039872 -0.028949 
VVFIN -0.46134 0.06342 0.067725 -0.091707 -0.02185 0.075364 -0.38268 -0.010539 0.028341 0.021058 0.048581 0.017751 -0.027543 -0.0024104 -0.012349 -0.070048 -0.061079 0.015415 -0.0091012 0.028431 0.027232 0.09569 0.033371 -0.041974 0.026948 -0.045785 0.01271 0.042011 -0.046472 -0.05573 -0.080567 0.037787 -0.009669 0.088502 0.023252 -0.00052392 -0.021016 -0.042178 0.075049 -0.02634 0.037016 0.075101 0.16927 0.050961 -0.043127 0.018313 -0.079872 0.051948 -0.033925 -0.03774 0.052127 0.06472 0.01276 -0.015585 -0.088649 0.10708 -0.031946 0.054398 -0.05867 0.090914 -0.029565 -0.026257 0.056654 -0.064352 -0.02074 -0.084391 -0.03101 0.016658 0.017327 -0.03829 0.029262 -0.023832 -0.050302 -0.066595 0.072588 -0.061458 0.047824 0.054382 0.088918 -0.077478 0.038161 -0.045559 0.12928 -0.13954 0.020203 -0.037187 -0.042509 -0.020236 -0.10986 0.0071931 0.012661 -0.056835 0.029902 -0.043077 0.098917 -0.011671 0.062172 0.0073163 -0.020122 -0.038297 -0.06464 -0.017386 0.062934 0.066348 -0.088719 0.11564 -0.028209 0.13081 -0.046845 -0.068423 -0.028414 -0.010876 -0.037049 -0.090775 0.05974 -0.03384 -0.027351 -0.016906 0.0012266 0.044982 0.016437 -0.10061 -0.0035679 0.055401 -0.034409 -0.053472 -0.032099 0.076682 -0.17743 -0.041279 0.054625 -0.017163 0.043118 -0.041065 -0.0020891 -0.029351 -0.061631 -0.087678 -0.048379 -0.047033 -0.15012 0.10171 0.11074 -0.031589 -0.0053833 -0.010882 0.12229 -0.0080927 -0.11515 0.031601 0.044674 0.027916 0.093038 0.11737 0.092304 -0.072734 -0.12002 -0.037318 0.13597 0.071099 -0.054209 0.056288 0.0043516 0.066463 -0.010196 0.095725 -0.092265 -0.077813 0.016654 0.092301 0.019816 0.017634 -0.030032 0.05906 -0.037124 -0.076129 -0.019914 0.039961 0.057941 0.037106 -0.0060794 -0.030569 -0.11889 0.043563 0.011888 0.048364 0.04866 -0.032749 -0.02412 0.027294 0.016587 0.015504 0.023429 -0.060816 0.15791 0.087638 0.13426 -0.073485 0.098972 -0.10393 -0.052071 0.033571 0.052782 0.052619 -0.02041 -0.056015 0.00030849 -0.018876 -0.039726 -0.0735 -0.1113 0.044819 -0.04514 0.035039 0.005853 0.0055276 -0.12248 -0.080483 -0.057851 -0.042955 0.021112 -0.068111 0.094171 -0.10556 0.066478 -0.07283 -0.047678 0.0092153 -0.034261 0.046327 -0.042737 -0.019051 -0.085645 -0.015014 0.083613 -0.0025332 -0.041925 0.017827 -0.022441 0.1187 0.0069727 -0.023225 -0.0080435 -0.057193 0.098018 0.045303 0.0012579 0.062671 -0.064142 -0.0082983 0.099105 0.04703 -0.044265 -0.029918 0.00040235 0.037081 0.0069738 -0.053094 -0.041279 0.052407 0.017943 0.052648 0.04401 -0.11979 -0.065083 -0.018766 -0.12693 -0.080957 -0.11512 0.0012947 0.0097476 -0.053601 -0.011666 -0.20584 -0.061687 -0.098595 0.041923 0.013655 0.04419 0.014334 -0.057512 -0.029339 -0.069813 -0.055208 0.017271 -0.002596 0.084026 0.083197 -0.056999 0.037651 -0.0015792 0.041609 0.10022 -0.031134 -0.021728 -0.0067608 0.012149 -0.031286 0.016688 -0.013614 
$( -0.18684 0.057897 -0.070683 -0.074265 0.021964 0.13916 -0.31604 -0.057053 -0.055058 0.11367 0.10298 0.047619 0.14201 0.028346 0.059313 0.048934 -0.0084907 -0.054585 -0.045778 -0.073929 0.034558 -0.014567 0.070745 -0.040291 -0.018135 0.011682 -0.077945 0.0089634 -0.037927 0.029939 -0.076156 -0.026495 -0.047937 0.030918 -0.004444 -0.067321 -0.0020878 -0.069683 0.12573 0.067895 -0.059189 0.050048 0.10293 0.03416 0.05947 -0.026817 -0.016567 0.082113 -0.036941 0.0196 0.030214 -0.037464 -0.037507 -0.062594 -0.010642 0.030441 -0.13457 -0.078459 0.025164 0.069022 0.064221 -0.084506 0.004808 -0.057821 0.061418 -0.02047 0.032967 0.068453 -0.063918 -0.026619 0.10069 -0.0047353 0.045328 -0.0069362 0.13599 -0.060077 -0.0050221 -0.048381 0.041945 0.01647 0.00057399 0.031413 0.10116 -0.089473 0.073045 -0.061194 0.011148 -0.040482 -0.10024 -0.055223 -0.050767 -0.031211 0.17929 -0.097584 0.0065253 0.10652 0.033615 -0.065806 -0.094322 0.010106 -0.0438 -0.030534 -0.032264 0.065474 -0.077117 0.0035305 0.0601 0.064332 0.023595 0.035806 -0.021474 0.016823 -0.11728 0.016443 -0.019633 -0.13009 0.041425 -0.0085204 -0.079904 0.008286 -0.075012 0.023501 0.041265 0.056202 -0.011511 -0.082714 0.0083083 0.11238 -0.1224 0.10143 0.19983 -0.063338 -0.069685 -0.066007 0.037032 0.028361 -0.12369 -0.05538 -0.0081331 0.077444 -0.027004 0.097762 -0.012299 0.039499 0.16695 -0.01183 0.055949 0.059172 -0.13669 -0.016302 0.019875 -0.055079 0.10582 -0.015069 -0.043364 -0.049144 0.056071 0.035055 0.044598 -0.041025 -0.091188 -0.0056431 0.03494 0.13693 0.070156 0.011077 0.083838 -0.019429 0.11382 -0.0032303 -0.052546 -0.016782 0.10012 0.023367 -0.0244 -0.098226 -0.040443 -0.047055 0.034928 0.0049615 0.014771 0.030603 -0.061826 0.15114 0.079221 0.099155 -0.015973 -0.12478 -0.083588 0.032425 0.10131 0.072291 0.0018359 -0.053739 0.048792 0.00012482 0.040727 0.066623 0.033056 -0.021746 0.037506 -0.075795 0.01341 -0.041147 0.0034051 -0.091967 -0.045876 -0.013693 -0.029649 -0.099622 -0.099321 0.027681 -0.22653 -0.027368 -0.0050997 0.022128 -0.052218 0.083741 -0.029294 0.059816 -0.016435 0.048289 -0.067804 -0.13052 0.036991 -0.031897 0.048702 0.01381 0.02412 0.048532 -0.027264 0.057502 -0.023022 -0.10488 0.067258 -0.083227 0.073679 0.046486 0.055765 -0.037209 0.050196 0.060156 0.022992 0.030669 -0.084162 -0.0043495 -0.019546 0.039125 0.038529 0.01315 0.018333 -0.023114 0.0082963 -0.049388 0.10627 -0.031675 -0.0935 0.11868 -0.041187 -0.015989 -0.083618 -0.0019474 0.044949 0.07411 -0.050607 0.051864 -0.011229 0.016692 -0.042492 0.031365 0.028126 0.0495 -0.10261 -0.11312 0.011949 -0.077937 -0.0428 -0.080342 0.066538 0.029126 0.030517 -0.061399 -0.019934 -0.038608 -0.016324 -0.024335 0.065462 0.12818 0.015765 -0.030392 -0.065895 -0.11876 -0.088189 0.017903 -0.010435 -0.15078 0.076394 -0.00677 0.11417 -0.03658 
VAFIN -0.12972 0.11038 -0.11209 -0.062885 0.010937 0.082694 -0.1455 -0.049831 -0.07661 0.035441 0.079385 0.091182 0.022117 0.036604 -0.087502 0.028348 0.023351 0.050074 -0.094733 -0.018309 0.043231 -0.031094 0.05759 -0.046408 0.045916 -0.082994 0.049325 -0.012464 -0.019589 0.042181 -0.053033 -0.012864 -0.039724 0.033599 -0.093245 0.073794 -0.022132 -0.073717 0.049323 -0.1051 0.018057 0.065506 0.13677 0.060953 -0.049704 -0.0094166 -0.050598 0.040503 -0.065208 -0.0065066 -0.030738 0.0075598 -0.064674 0.050499 0.00096572 0.10495 -0.0063924 0.030558 -0.0002702 0.098696 -0.0073326 -0.048394 0.061431 -0.072656 0.09162 -0.072396 0.044354 0.1534 0.039268 0.072265 -0.0081184 0.041767 -0.046525 -0.11388 0.064362 -0.082037 0.16239 0.070507 0.095532 -0.077517 0.088158 0.049236 0.086959 -0.047691 0.0065514 -0.06561 -0.03976 -0.030183 0.052376 -0.054348 0.013192 0.047095 0.13122 -0.026847 0.075183 -0.052068 0.032808 0.058661 -0.061208 0.027188 0.12818 -0.031332 0.10043 0.0043082 0.049687 0.16289 -0.025886 0.10523 -0.0052942 -0.04557 0.06085 -0.033512 -0.026828 -0.030569 -0.0043575 -0.060642 0.13706 -0.019502 -0.054932 -0.029109 -0.05609 -0.14781 0.1097 -0.047608 -0.072054 -0.031935 -0.077098 -0.11765 -0.091388 0.16013 0.036569 0.10368 0.039105 -0.071373 -0.00066666 -0.038719 -0.026449 -0.014507 0.087068 -0.14385 -0.13877 0.17884 0.069619 0.024869 0.10898 0.01143 0.17745 0.11625 -0.13309 0.031277 -0.011246 -0.017578 0.08696 -0.042428 0.029374 0.020409 -0.010092 0.0018123 0.10074 0.061001 -0.072858 0.063997 0.053786 0.025551 0.085919 -0.076416 0.093667 -0.1166 0.19146 0.034644 0.029113 0.034111 0.0081767 -0.0015871 -0.0057891 -0.16626 -0.0065703 0.034484 0.13772 0.1488 -0.054328 -0.033411 -0.059124 -0.046089 0.098079 0.078527 0.017837 -0.10153 0.03088 0.017882 0.17715 0.1013 0.0093301 0.024052 0.16424 0.065996 -0.034476 -0.10644 0.097374 -0.087733 0.075328 -0.00020088 0.11385 -0.050772 -0.069387 -0.012922 -0.055161 -0.038365 -0.010413 -0.043331 -0.13153 0.065052 -0.082585 0.027102 -0.02019 0.064761 -0.032821 -0.059928 0.0202 -0.0064579 0.024968 -0.091966 0.0012963 -0.021721 0.020403 -0.093296 0.0754 -0.063804 -0.027703 0.0512 -0.015257 -0.1336 -0.15232 -0.038477 0.031048 -0.095793 -0.028307 -0.028933 0.0060859 0.09284 -0.01261 0.11103 -0.025904 -0.12386 0.085008 0.044878 -0.015941 4.4289e-05 0.099794 0.054686 -0.018141 0.050638 -0.031063 -0.094087 0.03963 -0.01026 0.020698 -0.068475 0.0036017 0.038697 -0.084065 0.016349 0.085054 0.01542 -0.0044093 -0.027463 -0.12346 0.00056637 -0.17729 -0.051136 -0.11701 -0.062889 -0.073697 -0.15702 -0.025225 -0.074729 0.083509 0.092823 0.068474 0.0064105 -0.038964 -0.020121 -0.023367 -0.1019 0.019925 -0.064648 -0.05005 0.15035 0.053113 -0.05612 -0.012396 0.03541 0.049934 0.0084681 -0.070844 -0.10578 -0.053261 -0.072708 -0.029229 0.014828 
KON -0.12611 0.037453 0.057524 -0.065452 -0.039489 0.061635 -0.11569 0.0069018 0.02851 0.029796 0.063735 -0.0045729 0.046904 -0.037195 0.066829 0.0080404 0.00030999 -0.040053 0.0070011 0.033386 0.0028612 0.035133 -0.014131 -0.016925 0.030982 -0.031667 -0.034128 -0.016615 -0.10816 -0.044055 -0.01884 0.024363 -0.017193 -0.025204 -0.062217 -0.045706 -0.079028 -0.095986 0.023241 0.086603 0.03877 0.079259 0.12472 0.088261 -0.078901 0.023126 0.011419 0.11578 -0.046792 -0.027883 -0.013988 0.085137 -0.054748 0.013373 -0.002218 -0.049319 -0.042159 -0.026484 0.0094794 0.056875 -0.037452 -0.028391 0.027093 -0.0059436 0.017325 -0.038113 -0.0027693 0.061067 -0.10439 0.02821 -0.03442 -0.013792 -0.092355 -0.010666 0.045134 -0.04021 -0.072209 0.06924 0.091554 -0.061094 0.014932 0.0064381 0.084722 -0.090282 -0.033696 -0.012468 -0.02842 -0.034614 -0.11669 0.0020202 0.013831 0.011813 0.094428 -0.019743 -0.0054269 -0.066877 0.028339 -0.035627 -0.043052 0.017256 0.020282 0.028108 0.024671 0.051704 0.016939 0.13504 -0.083855 0.043123 0.076468 -0.039224 -0.062446 -0.05907 -0.12798 0.021185 0.032467 -0.13982 0.028877 0.032515 -0.071538 -0.017898 -0.049807 -0.080562 0.041741 0.10471 -0.085163 -0.076603 0.0012241 0.056088 -0.14097 0.07127 0.092805 0.006609 0.049389 -0.079697 0.015403 0.0089072 -0.061797 -0.065305 0.064013 -0.056036 -0.16184 0.1165 0.11021 0.098265 0.025253 0.0725 0.04359 0.010819 -0.098285 0.076819 -0.056758 0.023024 0.13468 0.093085 0.016227 -0.064083 -0.021122 -0.027659 0.087121 0.069692 -0.021961 -0.016996 0.093845 0.048336 -0.0031571 0.090752 0.021167 -0.067659 0.048401 0.055795 -0.053715 0.0046811 -0.031782 0.0029308 0.0093334 -0.040712 -0.023766 -0.0087718 0.12175 0.026641 -0.023214 -0.014788 -0.034374 0.0048738 0.062318 0.072637 -0.0041411 -0.0924 0.025749 0.05905 0.070071 -0.024722 0.13858 -0.047148 0.138 -0.010302 0.05159 -0.025489 0.10092 -0.060387 -0.013466 -0.047467 0.047323 0.0057873 -0.02118 -0.041745 -0.05602 -0.022091 -0.0060357 -0.074529 -0.082545 -0.0062781 -0.0080172 0.031554 -0.01361 0.0321 -0.054662 -0.042605 -0.022865 -0.027401 0.022697 -0.080587 0.050026 -0.076186 0.033967 -0.0695 0.057335 -0.028421 -0.018891 0.049309 -0.026441 0.024412 -0.10432 -0.059279 0.064508 -0.07288 0.024121 0.015775 0.0058797 0.052803 0.03119 -0.013766 -0.0085224 0.065245 0.071718 0.031423 0.058645 0.056171 0.020132 0.052665 -0.033691 0.056332 -0.014806 0.0087502 -0.015081 0.020329 -0.028897 -0.022447 -0.044464 -0.048063 -0.070603 0.012749 0.062854 -0.003048 -0.0083324 -0.019961 -0.077667 -0.03999 -0.10762 0.014813 0.0029719 -0.031265 0.0013863 -0.14546 0.0095575 -0.093875 0.029286 0.03081 0.030696 0.029977 0.10846 -0.0068674 -0.031527 -0.099923 0.027697 -0.057222 0.0091573 0.10219 -0.013133 0.011318 -0.0044799 -0.0058167 0.078059 -0.014256 -0.00098182 0.01261 -0.021217 0.026117 -0.0078347 -0.03598 
ADJD -0.21624 0.058398 -0.012738 -0.086266 0.0085674 0.080498 -0.28827 -0.056317 -0.0025399 0.069226 0.036149 -0.029211 0.054482 -0.029979 -0.019778 0.026029 -0.12339 -0.048628 -0.053784 -0.038388 0.097559 -0.0085693 0.02816 0.037069 -0.1006 -0.10468 -0.086989 0.0082742 -0.034665 0.033961 -0.012755 0.032879 0.070541 0.070513 -0.10496 0.0056726 0.01216 -0.073404 -0.075216 0.029211 -0.013066 0.031802 0.091172 0.028786 0.0077843 -0.0092266 0.010769 0.0098213 0.03675 -0.005155 -0.046701 0.039313 -0.0183 -0.0028142 -0.0099806 0.078173 -0.026859 -0.052242 0.01775 0.041147 -0.030818 0.015579 -0.013472 0.019649 -0.044955 -0.058629 0.10542 -0.0026749 -0.001148 0.0052869 0.075356 0.037588 -0.053984 -0.048052 0.06286 -0.035722 0.041474 -0.00050342 0.077886 -0.052092 0.068362 0.032714 0.026689 -0.036602 -0.012672 -0.035305 -0.06169 0.050355 -0.010407 -0.0044018 -0.010735 -0.012081 0.042276 -0.020753 0.083197 0.014773 0.020749 0.042857 -0.047577 0.035706 -0.037995 -0.05996 -0.001704 0.046819 -0.013611 0.14718 -0.075169 0.072793 -0.015668 -0.028299 -0.011917 0.010486 -0.044232 -0.051624 0.043772 0.030555 0.029982 -0.010661 -0.047575 0.0019426 0.059983 -0.033005 0.08863 0.07603 -0.026758 -0.0098259 0.0099349 0.081606 -0.08455 0.048545 0.13402 -0.033005 0.00044123 -0.043692 0.037095 -0.022064 -0.040188 0.023065 0.059389 -0.069682 -0.11292 0.039328 0.04782 0.013964 0.076959 0.00048699 0.058504 0.042024 -0.033472 0.0038932 -0.019084 0.014894 0.033809 0.026002 0.072407 -0.093222 -0.020584 -0.012994 0.051735 0.0013136 -0.050966 -0.087476 0.021265 0.028237 -0.00018223 0.021471 -0.043112 -0.05936 0.034655 0.097327 -0.044666 0.035962 0.0040276 0.035625 -0.049712 -0.12276 0.036212 0.032195 0.095805 0.0060304 -0.033418 -0.017104 -0.10705 0.043317 -0.0351 0.087098 0.012935 -0.044869 0.03628 -0.048816 0.019347 0.059097 0.01362 -0.073862 0.092463 -0.017958 -0.0012233 -0.0068436 0.079372 -0.07084 0.032673 -0.065769 0.092298 -0.018451 -0.081273 -0.080783 -0.049187 -0.01621 -0.064857 0.0092763 -0.07018 0.071638 -0.097159 0.027058 -0.038403 0.060773 -0.017287 -0.069154 0.033768 -0.049981 -0.01769 -0.044947 0.053899 -0.11333 -0.019835 -0.020405 -0.013081 -0.065345 0.032139 0.00042439 -0.036062 -0.048807 -0.058253 -0.077542 0.040947 -0.054848 0.063638 -0.023427 -0.03453 0.083054 -0.02591 -0.041962 0.013026 0.0021382 0.078593 -0.0042197 0.046995 0.015891 -0.00011179 0.046314 -0.020989 -0.001124 -0.099981 -0.001163 0.033935 -0.012226 0.051808 -0.063493 -0.0017392 0.062102 -0.052629 0.0031407 0.047772 -0.0013895 -0.021985 0.0083493 -0.051878 -0.0073174 -0.041728 0.048744 0.046056 -0.047464 -0.0013872 -0.082194 -0.020331 -0.016339 0.011431 0.12217 0.029756 0.027652 -0.046604 -0.0032338 -0.02791 -0.073216 0.06221 -0.014639 0.021299 0.11733 0.006829 0.0063767 0.059085 -0.049904 0.037633 0.013055 -0.022831 -0.051961 0.017992 -0.01001 -0.021936 -0.012748 
VVPP -0.18139 0.11291 -0.035711 -0.031192 -0.021518 0.11203 -0.24351 -0.075288 0.0546 0.0014275 -0.03658 -0.12785 0.053258 -0.10434 0.067984 -0.013102 -0.026241 -0.0098895 -0.011114 -0.049066 0.00049359 -0.070334 0.034009 0.036533 -0.076922 -0.077791 0.028171 -0.015181 -0.13671 0.065981 -0.009893 -0.014913 -0.00030297 0.033572 -0.16427 0.038991 0.00071752 0.022916 -0.084503 0.024781 -0.063633 -0.018058 0.0582 -0.047255 0.064323 0.031022 0.030633 -0.028119 0.021292 -0.034211 -0.084584 0.074766 -0.053967 0.094278 0.10956 0.056863 -0.033459 -0.027343 0.10287 0.048694 -0.15637 0.17684 0.049288 0.10441 0.0051167 -0.13914 0.021942 -0.034767 -0.02317 0.073508 0.1926 0.0092049 -0.16373 -0.0038661 0.03086 -0.023897 -0.032037 0.00066687 0.11606 -0.056593 0.17718 -0.094443 0.038847 0.037141 -0.094279 -0.013636 0.020717 0.048179 -0.0010653 0.016523 0.0091467 0.019941 0.03802 -0.014381 0.013603 -0.02195 0.01915 -0.044294 -0.102 0.080294 -0.037765 -0.031383 0.051594 0.036559 0.10374 0.11239 -0.10496 0.11629 -0.10124 -0.01708 0.045258 -0.022222 -0.027721 0.069622 0.053171 -0.036629 0.055045 0.042786 -0.018145 0.033149 -0.080923 -0.136 0.12049 -0.032546 -0.07538 -0.02107 -0.022664 0.096962 0.023869 0.052692 0.24019 0.090399 -0.029965 -0.11258 0.065745 -0.044309 -0.061828 0.020584 0.13071 -0.13134 -0.12323 0.057705 0.079539 0.020055 0.0077384 0.068043 0.07027 0.15795 -0.017218 0.065622 -0.039284 0.017956 0.048385 0.061845 0.010882 -0.13461 0.0099788 -0.0083482 -0.053994 -0.0033583 0.017172 -0.18702 0.013189 0.023168 -0.072757 0.047978 -0.084067 -0.13477 0.081291 0.15856 -0.10914 0.056225 0.081483 -0.084176 -0.075076 -0.17301 0.012605 -0.02942 0.10847 0.028082 -0.01222 -0.060654 -0.11712 0.0073385 -0.043612 0.066019 -0.012638 -0.17207 0.049361 -0.076071 0.013433 0.1056 0.048286 -0.10707 0.10007 -0.12945 0.041006 -0.038703 0.08619 -0.10335 0.10282 -0.17623 0.20401 -0.10185 -0.003545 -0.070253 -0.056066 -0.045192 -0.093066 0.0066649 -0.057248 0.042842 -0.092136 -0.11438 0.00049838 -0.01428 -0.049968 -0.075923 0.044248 -0.03914 -0.017065 -0.073804 0.013566 -0.11167 0.042442 0.040453 0.077437 -0.066908 0.074637 0.020171 -0.051459 0.097448 -0.043945 -0.039523 0.14756 -0.092294 0.024984 -0.10463 -0.036633 0.031128 -0.022696 -0.041493 0.056271 0.004787 0.17127 -0.062702 0.13644 -0.024392 0.1068 0.084609 -0.2078 -0.012806 -0.094074 0.052286 -0.037069 0.078281 0.12602 -0.14003 0.056046 0.12416 -0.038421 -0.059768 0.042062 0.16896 0.046819 -0.037525 0.040268 0.023968 -0.050196 0.11592 -0.053346 -0.13109 -0.1082 -0.13413 0.027264 0.047519 -0.048631 0.14964 0.054333 0.018673 0.02029 -0.081392 -0.11288 0.027364 0.042612 0.038068 -0.095062 0.12379 -0.007309 -0.09405 0.12254 0.0029466 -0.022317 0.062057 -0.024133 -0.031823 -0.11779 -0.011342 0.014243 -0.0020723 
CARD -0.26721 0.053189 0.11837 -0.19888 -0.061218 0.026646 -0.42166 -0.052352 0.066036 0.19884 0.015115 -0.038716 0.09946 -0.005765 0.095542 0.070827 -0.14116 -0.057633 0.031899 0.064327 -0.021642 -0.079844 8.5996e-05 0.00048523 -0.0029507 -0.0057428 -0.12398 -0.086051 -0.11797 -0.059296 0.05032 0.02759 -0.060785 -0.11478 -0.11137 -0.18069 -0.092512 -0.0077635 0.059204 0.041646 0.011903 -0.051707 0.099597 0.078511 0.017459 -0.0049558 0.093519 0.14504 0.04821 0.033177 -0.045726 -0.055913 -0.15934 0.055536 0.08762 0.046718 -0.14776 -0.11673 0.071514 0.057 -0.12867 0.14624 0.029448 -0.02423 -0.028006 -0.044841 0.037635 0.096812 -0.12377 0.042496 0.044972 -0.074776 -0.10664 0.028898 -0.02273 -0.13225 -0.058348 0.052799 0.093726 -0.06306 0.09666 0.057283 0.022879 -0.046538 -0.075019 0.012304 0.10028 0.0048303 0.076734 0.049609 -0.049996 0.10891 0.16842 -0.046713 0.057832 -0.056237 0.062895 -0.077394 -0.094801 0.097528 0.11472 -0.017656 -0.10917 0.083922 0.13097 0.15615 -0.10404 0.039685 0.11684 -0.096925 0.021617 -0.056654 0.0088114 0.011471 0.095845 -0.14757 0.023546 -0.030153 -0.065623 -0.10213 -0.068541 -0.0050838 0.18326 0.031996 -0.057856 -0.11374 -0.044923 0.076088 -0.11305 0.19796 0.11494 0.012282 -0.094095 0.03275 0.072194 -0.041551 0.1218 0.028775 0.20658 -0.13394 -0.19266 0.043728 0.11799 0.034207 0.1176 0.055647 0.069066 0.046481 -0.060453 0.064447 -0.1726 -0.029716 0.020611 -0.094614 0.0024393 -0.15053 0.095497 0.0047957 -0.042115 -0.073088 -0.020633 -0.12834 0.12566 -0.013178 0.035228 0.062504 0.036435 -0.010267 0.11022 0.19546 -0.070412 0.12808 0.066276 -0.054421 0.088087 -0.022094 -0.14169 -0.017617 0.096066 0.097081 0.014729 -0.052878 0.10914 -0.028226 -0.046884 0.10747 -0.080985 -0.11356 0.084244 -0.032191 0.073743 0.026818 0.084263 -0.13892 -0.067211 -0.13289 -0.062193 0.01809 0.17725 0.053564 0.090293 -0.11972 0.07886 -0.089124 -0.082895 -0.064226 -0.156 0.010283 0.069765 0.015219 -0.14248 -0.013961 -0.1474 0.072998 -0.06223 -0.0027221 -0.074106 -0.0074472 0.024068 -0.043465 0.065926 -0.086872 -0.0055788 -0.15472 0.017854 0.055221 0.18408 0.0018409 0.061532 0.021307 -0.071232 0.13396 0.036675 -0.078636 -0.06697 -0.049012 0.13291 -0.089356 0.083474 0.043714 -0.017815 -0.040717 0.0016259 0.10847 6.1554e-05 -0.078977 0.044456 -0.02445 0.072461 0.040643 -0.021961 -0.071365 -0.14568 0.058112 0.06705 -0.043291 -0.017131 -0.057878 0.016841 0.029321 -0.23901 -0.048119 0.015168 0.17246 0.051691 0.0092071 0.059337 0.016676 0.016927 0.05934 0.011512 0.014415 0.099194 0.034471 0.12345 -0.033423 -0.10172 0.19069 0.013192 0.049847 0.081331 0.14072 -0.014754 -0.0067659 -0.045915 -0.05807 -0.10547 -0.019345 0.067016 -0.093036 0.031253 -0.01022 -0.056683 0.013926 -0.056109 -0.054626 -0.1943 0.10415 -0.17283 -0.054513 
APPRART -0.19861 0.042998 0.044667 -0.062617 -0.043667 0.021944 -0.17174 -0.033078 0.0068124 0.09241 0.091519 0.02361 0.055843 0.009227 0.055929 0.029412 -0.046412 -0.0353 0.010825 0.017439 0.020728 0.032442 0.0033804 0.0099996 0.0052203 -0.073263 -0.070675 -0.03218 -0.088714 -0.044576 -0.032791 0.0067641 -0.0052199 -0.027384 -0.094571 -0.061493 -0.078501 -0.060277 0.042981 0.038204 0.064178 0.027325 0.094035 0.010873 -0.049888 -0.01509 0.069755 0.10404 -0.010205 0.00028827 -0.027392 0.053709 -0.064915 -0.031176 -0.010085 0.0063304 -0.075437 -0.044419 -0.032565 0.065388 -0.061027 -0.0032725 0.051237 0.014207 0.0075668 -0.09577 0.062635 0.03571 -0.094217 0.016066 0.0082509 -0.016083 -0.07314 -0.0058344 0.035804 -0.049371 -0.018675 0.073551 0.099135 -0.062413 0.047677 -0.011448 0.093331 -0.10422 -0.034563 -0.023039 -0.013286 -0.036162 -0.034365 0.013914 -0.01553 0.028933 0.10259 -0.032715 0.0040658 -0.061318 0.032185 -0.038084 -0.026834 0.025732 0.015973 -0.0096562 0.012607 0.047571 0.020832 0.12454 -0.089183 0.0018454 0.046567 -0.069352 -0.060227 -0.070814 -0.076866 -0.024935 0.032448 -0.14319 0.033594 0.006128 -0.081125 -0.021855 -0.050644 -0.062977 0.065052 0.056889 -0.049706 -0.09829 -0.023233 0.027906 -0.13277 0.064781 0.076181 0.012017 0.0075537 -0.0073652 0.02158 0.017578 -0.02301 -0.033702 0.091915 -0.071728 -0.15394 0.08463 0.084908 0.040511 0.050651 0.050982 0.041823 0.04911 -0.088082 0.099303 -0.077135 0.054121 0.07875 0.041724 -0.0027211 -0.079808 0.030219 0.0033778 0.035185 0.0096083 -0.0062137 -0.0082411 0.074504 0.029183 0.036716 0.10252 0.0030263 -0.085361 0.083324 0.07623 -0.043323 0.026767 0.0062725 -0.0057484 0.012041 -0.062682 -0.04716 -0.016104 0.12215 0.074173 -0.061397 -0.024005 -0.029548 0.0052145 0.039716 0.0506 0.0035152 -0.093974 0.025785 0.010438 0.089939 0.031772 0.058107 -0.052764 0.082766 -0.0030733 0.034182 -0.036141 0.13878 -0.06378 0.017843 -0.059941 0.10207 -0.0032156 -0.053258 -0.0659 -0.078905 -0.03696 0.014571 -0.015707 -0.12928 -0.0053722 -0.11488 0.034412 -0.015709 0.041882 -0.07938 -0.05476 -0.027733 -0.046561 0.049686 -0.05473 0.02395 -0.086837 0.038599 -0.021292 0.10072 -0.014591 -0.0055938 0.022908 -0.047244 0.041997 -0.068917 -0.073483 0.063879 -0.035038 0.038517 -0.00049773 0.03322 0.026566 0.00049167 0.0043832 0.032492 0.11368 0.075202 -0.024985 0.065882 0.052329 0.02141 0.060307 -0.028446 0.054437 -0.064808 -0.031855 0.01035 -0.005493 -0.04576 -0.017257 0.01616 -0.013047 -0.10336 -0.038861 0.024633 0.056554 -0.0084672 0.0014252 -0.071646 0.01734 -0.09866 0.033713 0.001268 -0.019762 0.0071018 -0.15187 0.020124 -0.089675 -0.031531 0.076876 0.037215 0.073256 0.076814 0.024592 -0.025034 -0.066297 0.027252 -0.035493 -0.026841 0.060541 0.0071238 -0.010676 0.013048 0.0086026 0.0042179 -0.01943 -0.01115 -0.059419 -0.070215 0.035625 -0.048313 0.0070988 
PPER -0.17916 0.072566 -0.051745 -0.016444 -0.028649 0.087835 -0.12802 0.014181 -0.0061745 -0.022614 0.073581 0.033352 -0.00093113 -0.041508 -0.058176 0.02884 -0.033863 -0.083243 -0.11328 0.0093705 0.13044 0.044352 0.093709 0.019509 -0.10919 -0.1649 -0.037416 -0.040494 -0.052986 0.10388 -0.10195 -0.025085 0.019045 0.12076 -0.14087 0.07859 0.011707 -0.060329 -0.036739 0.014373 0.025136 0.084418 0.12645 0.050822 -0.030814 0.028398 -0.0023283 -0.060906 0.015905 -0.036382 -0.0079296 0.11771 0.042905 0.0062609 -0.086006 0.023774 0.038935 -0.0016118 -0.040548 -0.0060119 0.014484 0.013285 -0.020987 0.033928 -0.099364 -0.055101 0.062159 0.0063477 -0.010281 -0.010662 0.035129 0.020925 -0.02925 -0.018031 0.063227 0.020691 0.022518 -0.038398 0.060297 -0.035827 0.011764 -0.011303 0.094241 -0.038671 -0.0097604 -0.049653 -0.1495 0.092184 -0.07909 -0.0098437 0.097022 -0.084779 0.038998 0.029474 0.033044 0.014751 0.022838 0.059599 -0.044855 -0.01503 -0.092089 -0.065987 0.093778 0.06415 -0.076287 0.1709 -0.028192 0.11832 -0.053557 0.0016331 -0.034661 -0.0017647 -0.084623 -0.052334 -0.026783 0.026422 0.045184 0.02341 -0.04075 0.079428 0.04627 -0.057829 0.010822 0.15794 -0.047993 -0.028782 0.013008 0.13396 -0.10219 -0.0066577 0.1482 -0.070492 0.096414 -0.07495 0.029625 0.0022201 -0.095219 -0.011041 0.029718 -0.03076 -0.082012 -0.040088 0.036399 0.076585 0.0022077 -0.01667 0.041583 0.036699 -0.05432 -0.02662 -0.012536 -0.037823 0.12867 0.14751 0.091846 -0.081173 -0.089162 -0.035307 0.11509 0.030928 -0.059417 -0.092664 -0.020779 0.054267 -0.07125 0.043226 -0.07009 -0.040665 -0.022702 0.033909 -0.086247 -0.057337 0.02633 0.020373 -0.088196 -0.10995 0.088631 -0.0031255 0.077529 -0.066685 0.017865 -0.0028749 -0.16762 0.059198 -0.027395 0.018915 -0.00064576 -0.038358 -0.061027 -0.066934 0.040692 0.034817 0.041418 -0.081134 0.14986 0.010379 0.045174 0.0055643 0.007339 -0.14331 -0.012225 -0.027854 0.14675 -0.025102 -0.040659 -0.099541 0.013391 -0.0084338 -0.13321 -0.0040429 -0.021499 0.061557 0.026711 0.0081294 -0.026422 0.022783 0.070518 -0.034643 0.003647 -0.014846 -0.074377 -0.04005 0.075824 -0.064344 -0.050885 -0.075305 -0.080227 -0.031151 -0.020815 0.023732 0.0023728 -0.060628 -0.12097 -0.038618 0.13058 -0.04632 -0.0050719 0.044793 -0.11342 0.061583 -0.027376 -0.087303 0.0056232 0.04614 0.18305 0.07804 0.10115 0.12005 -0.024655 0.059129 -0.0056374 0.0031678 -0.0099112 0.00061761 0.013083 0.015947 0.062718 -0.074463 -0.012946 0.026746 0.019035 0.050652 0.056953 -0.078403 -0.079582 -0.010869 -0.12076 -0.046689 -0.10196 0.020752 0.062953 -0.074996 -0.029808 -0.15131 -0.08048 0.0010459 0.066075 0.0090712 0.062581 -0.029429 -0.004029 -0.054803 -0.014114 -0.059204 0.047508 0.0092327 0.11568 0.16515 -0.026245 0.07073 0.02406 -0.031409 0.083216 -0.0043337 0.0019666 0.012124 0.10699 -0.0034048 0.030027 -0.026735 
VVINF 0.13074 -0.15616 0.05886 0.18302 0.00010366 -0.23574 0.24058 -0.0033782 0.033767 0.022064 0.013221 0.03414 0.011133 -0.053812 -0.035378 -0.090772 -0.037698 -0.02906 -0.047877 0.045169 0.031993 0.070685 0.14851 -0.075281 -0.076333 -0.13265 -0.061734 -0.042826 -0.11528 0.03151 -0.11661 -0.004755 -0.079343 0.13097 -0.095557 -0.075693 -0.0087711 -0.044494 0.086551 0.011294 -0.012338 0.055626 0.15795 0.037514 -0.0076424 0.055299 0.063624 0.044658 0.074232 -0.087287 0.0024485 0.088318 0.019742 0.049136 -0.045928 0.041899 -0.063327 -0.014589 -0.053807 0.072754 0.021494 0.076625 0.071861 0.040765 -0.11317 -0.095429 0.099129 0.030929 -0.076094 -0.060379 0.04329 -0.072561 0.020543 0.039843 0.028486 -0.017735 -0.042625 -0.047214 0.023402 -0.058508 0.044254 -0.052067 0.12744 -0.094736 0.0020832 -0.013531 -0.059867 -0.024846 -0.13596 -0.0097486 0.095003 -0.035917 0.10983 -0.059182 0.0758 0.03876 -0.0018483 0.064108 -0.16494 -0.075288 -0.1107 -0.043218 0.083211 0.075034 -0.11589 0.14427 -0.073303 0.23872 -0.055884 -0.089014 -0.056752 0.016794 -0.11576 -0.13523 0.080647 -0.10343 0.057617 -0.0059839 -0.024361 0.028737 -0.0071247 -0.09135 0.045823 0.10277 -0.024458 -0.12174 0.016045 0.21512 -0.22161 0.00033318 0.22305 -0.074682 0.037258 -0.050557 0.075214 0.089766 -0.0046117 -0.001948 -0.019194 -0.096121 -0.1573 -0.0089355 0.030162 0.067357 0.0053312 -0.0060606 0.10121 0.048445 -0.19335 -0.0024106 -0.069645 -0.11672 0.22895 0.16339 0.016687 -0.12822 -0.15464 -0.0011335 0.10552 0.030892 -0.071037 -0.098389 -0.0010649 0.084737 -0.077056 0.11447 -0.087421 -0.063719 0.060856 0.072575 -0.087914 -0.06919 0.041318 0.0040369 -0.034946 -0.12054 0.027211 -0.058934 0.092712 -0.055971 0.019595 -0.023663 -0.12934 0.036879 0.014693 -0.0085531 0.0020785 -0.087822 -0.11937 -0.040428 0.018342 0.022322 0.054667 -0.11918 0.11118 0.061748 0.098503 -0.0032331 0.07994 -0.11803 0.055714 -0.055531 0.20539 -0.035131 -0.083844 -0.042515 0.0050016 -0.036592 -0.069086 -0.014225 -0.060641 0.055711 -0.060817 0.035191 0.0095738 0.012374 -0.075169 -0.018117 -0.063972 -0.038786 -0.0054795 -0.025177 0.023557 -0.16987 -0.055485 -0.094988 -0.074182 -0.0087894 -0.064386 0.060222 -0.023549 0.065252 -0.06425 -0.025194 0.11257 -0.057665 0.014218 0.030661 -0.085579 0.071527 0.049464 -0.045335 0.046419 0.064106 0.10136 0.076232 0.032992 0.10511 -0.010377 0.041947 0.051279 -0.044207 0.0026622 0.049978 0.070233 0.054318 -0.0037042 -0.033752 0.010497 0.055616 -0.026175 0.056711 0.0097982 -0.07017 -0.044937 -0.030088 -0.18527 -0.06671 -0.12596 -0.061856 0.049155 -0.037024 0.0052844 -0.16729 0.016978 -0.035114 0.012042 -0.046382 0.033319 -0.051304 -0.012673 -0.075888 -0.035037 -0.11694 -0.025661 0.048304 0.10992 0.1958 -0.053805 0.10663 -0.030565 -0.049816 0.019178 0.013749 0.0045754 -0.00039233 -0.022636 0.074569 0.082858 -0.048006 
VMFIN -0.15965 0.1062 -0.0041714 -0.025715 -0.096181 0.14405 -0.34741 -0.041256 0.10009 0.03865 0.055499 0.054725 -0.0018024 0.039619 -0.010726 0.045995 -0.023226 -0.0033961 -0.081922 -0.23961 -0.01416 -0.09998 0.011536 -0.045396 -0.075785 -0.038935 -0.074939 0.12971 0.059232 0.0019383 -0.060246 0.13223 0.041313 0.034842 -0.12079 0.0027167 0.087082 -0.26506 0.081039 -0.026595 -0.0072106 -0.049887 0.095828 -0.10666 0.061223 0.028803 -0.096815 0.058728 0.09829 0.032204 -0.041631 -0.049185 -0.065804 -0.0010462 0.055834 0.10945 -0.057012 -0.004312 -0.006741 0.13878 -0.024386 -0.048949 0.14176 0.075299 0.030081 -0.03728 0.029543 0.05268 -0.060578 -0.027245 0.17061 0.11497 -0.063948 -0.078525 0.044475 -0.015494 0.13616 0.16693 0.051062 0.026298 0.11641 0.072803 0.031913 -0.024842 0.043844 0.013284 -0.028394 0.17127 -0.08783 -0.03372 -0.00041011 0.014669 0.15172 0.016196 0.085129 -0.03123 0.019964 -0.028205 -0.14589 0.099175 0.056673 0.12954 0.088905 -0.0097354 -0.046433 0.18599 -0.1869 0.039915 -0.13572 -0.11511 -0.053143 -0.0073802 -0.12512 -0.026318 0.0097493 -0.051867 0.091925 -0.1348 -0.026707 0.010704 0.16047 0.0088625 -0.018537 0.0161 -0.033147 0.026649 -0.04442 -0.13209 0.015144 0.073909 0.11199 -0.015589 -0.040639 -0.13194 -0.063636 -0.10741 -0.1247 -0.034972 0.012518 -0.10287 -0.15772 0.12892 0.072961 -0.18467 0.13778 -0.027916 0.19011 0.18625 -0.14251 0.047184 -0.037852 0.039785 -0.0048798 -0.08204 -0.11481 -0.051768 0.042757 0.079274 0.089237 0.005276 0.022727 -0.11503 0.04998 0.073513 0.051632 0.054134 -0.12938 -0.026503 0.109 0.14381 0.0019129 -0.011624 -0.00073499 -0.07643 -0.13276 -0.26879 0.12636 0.061239 0.18305 0.060282 -0.037161 -0.050915 -0.10077 0.032712 0.15245 0.08636 0.0048684 -0.066086 -0.068975 0.031851 0.11835 0.17943 -0.057207 0.026768 0.12669 -0.05581 -0.039123 -0.056017 0.089571 -0.097416 0.11051 -0.13435 0.035671 0.020745 0.11101 0.082389 -0.10819 0.063657 0.062091 -0.043578 -0.11909 0.026726 -0.089044 -0.033255 -0.14296 -0.047241 -0.10319 -0.090855 0.087106 0.061558 -0.037697 -0.16639 0.089179 -0.052066 -0.01588 -0.066854 0.10264 0.010087 -0.080401 0.030569 -0.029249 -0.030063 -0.090045 -0.027166 0.12171 -0.058981 -0.084788 -0.25764 -0.076658 0.036315 -0.061489 -0.017819 -0.060385 -0.11191 0.050179 -0.042074 -0.062271 0.034272 0.06234 0.13691 -0.0050311 0.073784 -0.11024 -0.048043 0.020229 0.032007 0.076355 -0.16462 0.075298 0.018517 -0.084108 0.014114 0.073458 0.020414 0.00045854 0.026151 -0.11222 0.033252 -0.11816 -0.001094 -0.0050697 -0.083501 -0.092946 -0.04486 -0.15054 0.12905 -0.038868 0.029726 0.013765 0.021243 -0.077019 0.011891 -0.11536 -0.20503 0.075323 -0.0094497 0.018515 0.064782 0.10811 -0.052183 0.032902 0.2478 -0.11856 0.046009 0.062078 -0.07203 0.054068 -0.1367 0.03658 0.0068476 
KOUS -0.15029 0.14231 -0.081931 -0.082818 -0.043669 0.22234 -0.19216 0.030172 -0.0064941 -0.01947 0.062896 0.030563 0.020027 -0.034921 -0.043291 0.09057 0.032894 -0.097932 -0.093007 0.0091599 0.10097 -0.0024561 0.048295 -0.01543 -0.090793 -0.092293 -0.041982 -0.040338 -0.073122 0.059763 -0.018242 0.0081939 0.017952 0.07045 -0.13713 0.053562 0.0032424 -0.1211 -0.055362 0.090384 0.033597 0.082733 0.082515 0.097727 -0.018738 0.023382 0.023467 -0.011752 -0.015461 -0.049462 -0.079565 0.10284 0.020045 0.042175 -0.046504 -0.069122 0.034512 -0.046356 0.024667 0.024894 -0.016635 -0.015555 -0.032999 0.032291 -0.046837 0.024957 0.033064 0.069634 -0.045193 0.055852 -0.031146 0.022209 -0.013984 0.015091 0.046322 0.041882 -0.024324 0.014617 0.046033 -0.052583 0.010908 0.056711 0.03377 -0.01365 -0.0081023 -0.023791 -0.11184 0.10695 -0.038531 -0.0034786 0.078971 -0.063602 0.089307 0.014514 -0.022238 -0.041066 -0.02512 0.047138 -0.059535 0.036109 -0.034455 -0.021463 0.091405 0.024959 0.012351 0.1715 -0.023429 0.069117 0.0043392 -0.018407 -0.035142 -0.03889 -0.14531 0.0036205 -0.029753 -0.016914 0.067652 0.017552 -0.10928 0.0063457 0.042856 -0.029576 0.037229 0.17193 -0.073947 -0.027891 0.0017355 0.056079 -0.095551 0.071326 0.11804 -0.015729 0.1189 -0.080748 0.037839 0.00024206 -0.090683 0.0081151 0.062411 -0.058854 -0.12968 0.031417 0.058467 0.14958 0.022888 0.034617 0.033192 0.04778 -0.043792 0.0053362 -0.076403 -0.0096403 0.1004 0.084989 0.041076 -0.043937 -0.051043 -0.014439 0.12587 0.040983 -0.044949 -0.12464 0.017174 0.046635 -0.035242 0.0056707 0.0074399 -0.012087 -0.027563 0.050745 -0.10611 -0.068541 -0.049993 -0.028942 -0.055601 -0.1104 0.087155 0.00013886 0.11963 -0.018084 -0.0042831 0.00016428 -0.065134 0.0040656 0.026004 0.076258 -0.03035 -0.054793 0.031645 -0.05777 0.080247 -0.01624 0.088756 -0.045684 0.15519 -0.039719 -0.053445 0.0095676 0.013558 -0.087219 0.033473 -0.07529 0.087814 -0.026571 0.025997 -0.069235 -0.029075 0.038676 -0.093635 -0.013012 -0.025585 -0.0013123 0.084519 0.015237 -0.030244 0.049747 0.1161 -0.022108 0.077678 0.044643 -0.058305 -0.065807 0.075632 -0.014208 -0.050259 -0.078478 -0.012192 -0.083742 -0.031347 0.0074862 0.026378 -0.094781 -0.14027 -0.040099 0.079779 -0.10025 0.047628 0.0098826 -0.068337 0.040616 -0.024787 -0.044981 -0.010316 0.055967 0.12027 0.057573 0.093864 0.063279 0.017982 0.071275 -0.076042 0.038221 -0.0028535 -0.0081874 0.0064394 0.019459 0.055155 -0.055029 -0.022129 -0.0022273 -0.031816 0.045963 0.041948 -0.024292 -0.026075 0.0083793 -0.10275 -0.028419 -0.083084 0.019705 0.036255 -0.065668 -0.0071326 -0.086879 -0.068598 0.0076588 0.055743 0.038483 0.034492 -0.018912 0.060586 -0.012375 0.023987 -0.096843 0.038022 -0.059664 0.05526 0.14034 0.0071413 0.017851 0.0080014 -0.042677 0.055215 -0.014415 -0.034437 0.018411 0.076102 -0.031022 0.038674 -0.043816 
PPOSAT -0.087437 0.00044919 0.024232 -0.04103 -0.004873 -0.0083084 -0.068475 0.00099556 0.0084464 0.071661 0.071585 0.0089501 0.075995 -0.014336 0.0025919 0.02627 -0.078647 -0.049612 -0.030384 -0.002341 0.062992 0.042613 0.0021873 0.0069244 -0.044138 -0.072337 -0.097239 -0.0061019 -0.056202 -0.019268 -0.037486 0.037305 0.022598 0.018782 -0.065409 -0.030643 -0.033665 -0.10946 -0.0069566 0.061584 0.027291 0.062712 0.13365 0.089374 -0.040568 -0.0044616 -0.0052841 0.096371 -0.00014857 -6.4331e-05 -0.023476 0.058489 -0.04581 -0.015685 -0.035795 0.034683 -0.050512 -0.035941 -0.0025727 0.06991 -0.0086116 -0.0283 0.0071376 -0.013648 -0.012683 -0.027856 0.06894 0.034381 -0.063549 0.0046809 0.011628 0.018774 -0.049728 -0.039542 0.061096 -0.045655 0.017387 0.061279 0.10156 -0.057272 0.024864 0.032743 0.060785 -0.082557 -0.010644 -0.040237 -0.049065 0.004897 -0.065269 -0.0036628 -0.0040586 -0.0036182 0.1012 -0.011567 0.04527 -0.01348 0.028612 0.011837 -0.047775 0.021409 0.0014142 -0.020397 0.010328 0.064979 -0.022208 0.15753 -0.090604 0.065685 0.046342 -0.03991 -0.046972 -0.015953 -0.094048 -0.036497 0.046423 -0.050218 0.029716 0.0082345 -0.053214 -0.020083 0.014457 -0.039101 0.049319 0.10526 -0.057797 -0.05243 0.0052868 0.074263 -0.13302 0.066572 0.095435 -0.029359 0.025983 -0.057563 0.013736 0.0015619 -0.054115 -0.02964 0.042324 -0.062177 -0.1554 0.092169 0.085556 0.047629 0.06532 0.024492 0.066696 0.0079027 -0.086249 0.038622 -0.032111 0.015063 0.094125 0.054633 0.041728 -0.071958 -0.042916 -0.026087 0.082 0.045936 -0.049233 -0.033389 0.057336 0.036786 0.0075091 0.06345 -0.007325 -0.059994 0.03689 0.066139 -0.021756 0.017828 -0.017521 0.04637 -0.0076553 -0.089753 0.0025624 0.026575 0.11401 0.010625 -0.022141 -0.00033911 -0.071358 0.032931 0.030912 0.090062 0.0083126 -0.041109 0.018694 0.011635 0.066554 0.0098192 0.058118 -0.065464 0.10779 0.027614 0.030536 -0.008143 0.10153 -0.062795 -0.013048 -0.033325 0.037054 0.0061907 -0.051969 -0.040847 -0.064356 -0.014409 -0.020495 -0.038183 -0.090864 0.03215 -0.042315 0.063323 -0.039104 0.043166 -0.037237 -0.066394 -0.014011 -0.03492 0.0040647 -0.072887 0.061462 -0.11581 -0.0016544 -0.067869 0.0097428 -0.041202 -0.012349 0.030306 -0.031775 -0.032873 -0.090118 -0.07703 0.045969 -0.048201 0.043912 -0.014474 -0.020347 0.088463 0.0060165 -0.028613 -0.018646 0.025971 0.048111 0.020867 0.016116 0.044807 -0.0043901 0.043422 0.0069148 0.028538 -0.058666 -0.018209 0.015145 -0.020652 0.0016808 -0.041262 -0.018744 -0.014326 -0.067996 0.033165 0.053536 -0.046184 -0.018553 -0.0095377 -0.093029 -0.040945 -0.069342 0.010319 0.043871 -0.031971 0.011426 -0.11305 -0.022514 -0.070942 0.037304 0.067707 0.023483 0.026389 0.021041 0.0016971 -0.020819 -0.11267 0.044278 -0.040034 0.029994 0.11273 0.0030222 0.02707 0.017758 -0.0067766 0.058552 -0.0071978 -0.012435 -0.014677 0.02961 -0.010351 -0.00081955 -0.015315 
PIAT -0.17012 0.069778 -0.019694 -0.094847 -0.03005 0.058923 -0.23848 -0.055725 0.0030322 0.060819 0.035062 0.0075439 0.052546 -0.019779 -0.022469 0.036654 -0.075795 -0.027663 -0.055811 -0.020438 0.069091 -0.026618 0.019663 0.0094014 -0.064263 -0.08486 -0.085558 -0.015396 -0.052996 0.021905 -0.019546 0.053259 0.032783 0.025726 -0.11783 -0.019427 -0.031064 -0.097586 -0.038833 0.02373 -0.010816 0.031451 0.10984 0.05638 -0.031759 -0.0061758 0.036422 0.0635 0.044621 -0.013511 -0.052611 0.042559 -0.031808 0.033466 0.034411 0.035919 -0.035959 -0.049082 0.020322 0.033064 0.0059696 -0.00083935 0.01522 0.03606 -0.014972 -0.053001 0.11833 0.054937 -0.046963 0.0095499 0.02316 0.026405 -0.062875 -0.041216 0.041463 -0.037294 0.018372 0.01403 0.059644 -0.035717 0.046146 0.062046 0.0336 -0.028285 -0.024781 -0.033401 -0.048889 0.0075683 -0.023692 -0.030664 0.008303 0.04139 0.10253 -0.015689 0.0583 -0.0064411 -0.0033669 0.042886 -0.078364 0.0216 0.04786 -0.013333 0.0089973 0.032878 0.010704 0.17507 -0.10363 0.066384 0.035668 -0.052133 -0.0055375 0.0117 -0.06823 -0.040768 0.048802 -0.042325 0.087172 -0.0039961 -0.051484 -0.03642 0.025732 -0.036106 0.10117 0.067972 -0.032407 -0.020835 0.020856 0.037624 -0.099302 0.095227 0.13332 -0.028603 0.013104 -0.060953 0.020447 0.0025402 -0.0081316 0.014933 0.083232 -0.10315 -0.13941 0.053761 0.049374 0.056827 0.07646 0.026325 0.072607 0.063639 -0.081073 0.01524 -0.060979 -0.034911 0.10117 0.0083862 0.019463 -0.072202 -0.0049899 -0.013442 0.046343 0.027767 -0.046135 -0.084004 0.076078 0.028866 0.0061285 0.015556 0.013337 -0.050404 0.083311 0.050522 -0.04681 0.021071 0.026648 0.012162 -0.00072681 -0.10686 0.035401 0.0084728 0.13298 0.015359 -0.036755 -0.015603 -0.053879 -0.00061264 0.037829 0.063297 -0.018093 -0.065307 0.022521 -0.010175 0.07281 0.053496 0.057509 -0.047622 0.080691 -0.025703 -0.022474 -0.015741 0.086766 -0.0475 0.059476 -0.075602 0.099092 -0.026922 -0.087059 -0.034951 -0.073194 -0.0054678 -0.019761 -0.014728 -0.057896 0.063635 -0.063194 0.03707 -0.061235 0.074324 -0.010268 -0.046333 0.017978 -0.061015 0.020287 -0.064869 0.013544 -0.094328 -0.056365 -0.045185 0.009233 -0.061052 -0.014571 0.020975 -0.018998 -0.038233 -0.066921 -0.054754 0.015684 -0.073248 0.049161 -0.033729 -0.041969 0.082416 0.015442 -0.017349 -0.004983 0.019936 0.060142 0.0072699 0.022455 0.029312 0.032291 0.054682 -0.019142 -0.00099953 -0.070848 0.023442 0.060245 -0.017243 0.031267 -0.068177 -0.002162 0.012064 -0.09917 0.00563 0.055269 0.010096 -0.0020699 -0.0052696 -0.069736 -0.0080298 -0.067275 -0.013921 -0.00078781 -0.02902 0.015195 -0.054586 0.017977 -0.038186 0.026905 0.084675 0.023196 0.011579 0.0066314 -0.0042259 -0.0099429 -0.13236 0.02588 -0.030716 -0.0041357 0.11722 0.028197 0.018184 0.022788 -0.034151 0.037316 0.026988 0.00021347 -0.019228 -0.022255 0.021249 -0.039591 -0.023093 
PRELS -0.14042 0.13078 -0.054907 -0.15089 -0.032571 0.19551 -0.12211 0.04238 0.0097455 0.020499 0.049514 -0.019495 0.11275 -0.050576 0.013732 0.11274 0.014579 -0.10957 -0.043909 0.033295 0.069181 -0.0060836 -0.018113 -0.0097548 -0.06343 -0.0085634 -0.069241 -0.05868 -0.11179 0.014197 0.025409 0.028473 -0.00024277 -0.020243 -0.089792 0.024154 -0.065304 -0.11685 -0.082837 0.15733 0.015656 0.10041 0.09386 0.19555 -0.030036 -0.0005797 0.0080708 0.073545 -0.054903 -0.021136 -0.086987 0.10095 -0.022434 0.05824 -0.0034555 -0.1037 -0.011176 -0.084797 0.096697 0.0044834 -0.020489 -0.028002 -0.077206 0.0057952 0.012415 0.089946 0.0055174 0.095396 -0.073655 0.085493 -0.065074 0.012688 -0.060412 0.014799 0.071791 0.001347 -0.081172 0.039737 0.083479 -0.045569 -0.017025 0.09023 -0.0023756 0.00541 -0.03569 -0.035469 -0.055504 0.064126 -0.05032 -0.0061452 0.030728 -0.025753 0.11438 0.0091212 -0.06046 -0.026997 -0.01141 -0.003599 -0.059797 0.066664 0.022013 -0.0013575 0.0080182 0.04876 0.072272 0.16803 -0.03922 0.045945 0.11287 0.00738 -0.014607 -0.028759 -0.1419 0.077327 -0.011693 -0.049096 0.052493 0.058104 -0.12177 -0.040997 -0.052832 -0.013678 0.088241 0.20994 -0.11765 -0.046601 0.052568 0.085796 -0.094446 0.13474 0.13416 -0.029458 0.089133 -0.10985 0.041726 -0.0011395 -0.079641 -0.010638 0.10057 -0.04493 -0.16012 0.089914 0.094275 0.213 0.046849 0.079193 0.0098093 0.0056008 -0.01887 0.028383 -0.081373 -0.030171 0.10958 0.041309 0.037062 -0.050081 -0.027698 -0.059667 0.065827 0.049522 -0.039575 -0.12508 0.086199 0.043433 -0.031916 -0.0045464 0.088001 -0.0088779 -0.0443 0.043287 -0.10009 -0.0092568 -0.017565 0.0053672 0.03147 -0.044963 0.02193 0.0049309 0.11385 -0.025059 0.0059408 0.036217 -0.0035664 0.011623 0.031418 0.14646 -0.06863 -0.061413 0.099002 -0.01863 0.10959 -0.062384 0.13467 -0.061927 0.11621 -0.098484 -0.058942 0.051304 0.02932 -0.011671 -0.010738 -0.10451 0.011321 -0.0403 0.03318 -0.068684 -0.093287 0.044696 -0.057305 -0.057952 -0.029017 -0.008591 0.084239 0.036684 -0.039832 0.066755 0.11556 -0.012639 0.047907 0.039701 -0.0082326 -0.096147 0.052299 -0.05522 -0.029602 -0.063826 0.026979 -0.11075 0.0022985 0.019236 0.021164 -0.064501 -0.11064 -0.064492 0.028883 -0.11147 0.083695 -0.006203 -0.028783 0.062977 0.0033772 -0.055142 -0.045534 0.084103 0.055672 0.029004 0.077985 0.025742 0.027245 0.04204 -0.086306 0.016477 -0.028722 0.035985 0.0063225 -0.0069886 0.036779 -0.043171 -0.06325 -0.057934 -0.092039 0.051726 0.06208 0.010677 0.0040621 0.0047094 -0.021161 -0.066617 -0.004349 0.048029 0.0521 -0.050993 0.013761 -0.041212 -0.0018068 -0.065133 0.058478 0.05721 0.020849 -0.012181 0.13612 0.013391 0.030999 -0.09118 0.014104 -0.11143 0.0080579 0.1121 0.018646 1.4569e-06 0.012473 -0.093837 0.084325 -0.0082727 -0.0374 0.044367 0.061366 -0.013408 0.017782 -0.051443 
PRF -0.098049 0.042127 -0.0071594 -0.012324 -0.049013 0.023104 -0.020971 0.047477 0.0072644 0.036155 0.13085 0.080272 0.046177 0.0056293 -0.035852 0.047943 -0.056803 -0.082675 -0.061607 0.0087599 0.087721 0.060191 0.056171 0.0046314 -0.061148 -0.13687 -0.063241 -0.049092 -0.0095387 0.047196 -0.081824 -0.016482 -0.0012792 0.042 -0.098564 0.043898 -0.020501 -0.086873 -0.0089246 0.014093 0.08763 0.068087 0.11127 0.05468 -0.024828 0.010946 -0.026527 0.0012485 -0.016377 -0.0038202 -0.0012267 0.042277 -0.028241 -0.034335 -0.11602 0.039654 -0.01003 0.00011472 -0.065326 0.065955 -0.030662 -0.022754 0.020864 -0.021393 -0.055601 -0.019838 0.048255 0.030851 -0.03837 -0.0044941 0.011178 0.019006 -0.0373 -0.031388 0.047596 -0.029191 0.068054 0.088011 0.11014 -0.047004 0.0026054 -0.014647 0.079256 -0.090735 -0.0063154 -0.032597 -0.11578 0.091624 -0.062025 0.038754 0.059498 -0.045491 0.10064 0.019587 0.039062 -0.030068 0.077618 0.023437 -0.044231 0.022399 -0.037085 -0.03658 0.073578 0.080888 -0.046693 0.17816 -0.064745 0.059401 -0.015632 -0.033983 -0.071468 -0.069671 -0.066903 -0.048481 -0.021825 -0.0079047 0.024946 -0.0042876 -0.047616 0.037002 0.026744 -0.03996 -0.011917 0.13604 -0.071884 -0.057231 -0.03777 0.064884 -0.10771 0.047711 0.052133 -0.041806 0.064582 -0.038528 0.026461 -0.016352 -0.0839 -0.02475 0.050575 -0.048438 -0.11428 0.041859 0.055288 0.010987 0.052462 -0.016931 0.068781 0.0092717 -0.078783 0.031369 -0.049864 0.030999 0.065884 0.081629 0.06057 -0.066868 -0.042087 -0.0075864 0.10736 0.019676 -0.051621 0.00056581 0.015667 0.048698 0.0027867 0.052588 -0.054155 -0.048157 0.0037504 0.092294 -0.013727 -0.0060013 -0.022877 0.020072 -0.051252 -0.1094 0.012461 0.030415 0.10108 -0.0099173 -0.0062128 0.0022183 -0.11426 0.039948 -0.00264 0.05689 0.040008 0.0042792 -0.018874 -0.03498 0.070713 0.025855 0.0032399 -0.091195 0.1281 0.048439 0.0376 -0.025468 0.07341 -0.11164 -0.043698 -0.0019048 0.073271 -0.010806 -0.039263 -0.055609 -0.029099 -0.019563 -0.072894 -0.0069843 -0.10096 0.0090212 -0.026346 0.054003 -0.036682 0.011837 0.006563 -0.063367 -0.011532 -0.0065896 -0.035907 -0.076627 0.10259 -0.086239 0.0067321 -0.086642 0.0020116 0.0057666 -0.0094853 0.0036316 -0.024755 -0.054571 -0.13224 -0.081319 0.075664 -0.019284 0.0019915 -0.0029936 -0.055673 0.097124 -0.071954 -0.061904 -0.018571 0.04815 0.12647 0.051308 0.056067 0.10223 0.0011284 0.086623 0.03506 0.041919 -0.055176 -0.040349 -0.014788 -0.0091137 -0.0015483 -0.052549 0.0090363 -0.001508 -0.034645 0.053469 0.042395 -0.066759 -0.05669 -0.015143 -0.13138 -0.046461 -0.081731 0.03693 0.087767 -0.050408 -0.0048017 -0.12875 -0.066196 -0.024243 0.027694 0.054389 0.034074 0.0042712 0.026779 0.023726 -0.029628 -0.044845 0.068968 -0.033472 0.053038 0.1238 -0.013467 0.046389 0.014396 0.054059 0.035692 -0.040113 -0.020209 -0.033 0.080985 -0.01577 -0.0062834 -0.037552 
PTKNEG -0.21892 0.072211 -0.045948 -0.045955 -0.037582 0.097131 -0.20634 0.024361 0.012791 0.0019619 0.05334 0.046314 0.051807 -0.025584 -0.053803 0.013603 -0.035267 -0.064385 -0.059439 -0.0064135 0.077664 0.051681 0.068064 -0.021214 -0.094207 -0.094855 -0.057812 -0.027053 -0.018837 0.057807 -0.077634 0.0090498 0.0046631 0.099767 -0.071595 0.038433 0.028861 -0.09258 -0.030695 0.037006 0.010187 0.061192 0.10473 0.064202 0.01471 0.021149 -0.027888 -0.0013342 0.01476 -0.042592 -0.018382 0.051507 0.015537 0.0047793 -0.077536 0.021048 -0.0091293 -0.0086397 -0.016849 0.063459 0.013219 -0.0046989 0.014871 0.00345 -0.064086 0.0036132 0.059779 0.01558 -0.019545 -0.025046 0.029779 0.01244 0.01121 -0.01481 0.053973 0.0015797 0.036887 0.032865 0.066935 -0.035578 0.012687 -0.0043587 0.05048 -0.058251 0.017962 -0.035198 -0.097996 0.082255 -0.08489 0.0091982 0.061974 -0.063548 0.093254 0.001321 0.044469 0.022372 0.015051 0.051337 -0.089789 -0.00087514 -0.068267 -0.037405 0.074371 0.061388 -0.069177 0.14516 -0.0432 0.11813 -0.040497 -0.031621 -0.050849 -0.0034262 -0.10146 -0.055043 0.0076114 0.017525 0.039876 0.0021759 -0.034735 0.025005 0.051006 -0.030304 -0.0023972 0.12738 -0.04268 -0.030017 -0.0023977 0.11921 -0.11336 0.022724 0.12757 -0.058633 0.055335 -0.068811 0.040192 0.016955 -0.095049 -0.0074852 -0.0087511 -0.04594 -0.10357 0.022779 0.030325 0.041608 0.040306 -0.022554 0.07216 0.022922 -0.093347 -0.010124 -0.02964 -0.022963 0.10532 0.095544 0.050023 -0.069881 -0.084313 -0.010955 0.10696 0.031724 -0.071422 -0.059585 -0.0096764 0.065334 -0.028017 0.028689 -0.056117 -0.038827 -0.0026799 0.063273 -0.043123 -0.035302 -0.0071314 0.020743 -0.065233 -0.13076 0.053234 0.014688 0.083674 -0.051442 0.016352 0.0047029 -0.1213 0.051705 0.011223 0.058291 0.022824 -0.01329 -0.033931 -0.045586 0.034078 0.014742 0.01372 -0.095318 0.11041 0.035253 0.0349 -0.0042625 0.044477 -0.090401 -0.0038654 -0.035369 0.074427 -0.022287 -0.019088 -0.043369 -0.017507 -0.004253 -0.094219 -0.020444 -0.049442 0.03987 -0.01646 0.022516 -0.027082 0.022297 0.0081813 -0.036999 0.0018406 0.0078623 -0.04713 -0.048551 0.075223 -0.1102 -0.025262 -0.091908 -0.057178 -0.024061 -0.016682 0.012654 -0.0045386 -0.045314 -0.10418 -0.059382 0.08168 -0.051736 0.028109 -0.0061367 -0.076621 0.097148 -0.022266 -0.054807 -0.0083615 0.0072359 0.077702 0.056337 0.02285 0.07377 0.0045595 0.057681 0.019565 0.0029918 -0.029062 -0.0023284 0.02004 0.0086 0.028496 -0.044353 -0.0045071 0.023619 -0.010961 0.065973 0.030737 -0.079894 -0.040504 -0.016974 -0.11803 -0.063321 -0.05944 -0.0008087 0.071526 -0.052014 -0.026732 -0.10442 -0.056806 -0.0014789 0.039962 0.0093931 0.019893 -0.025321 -0.018028 -0.036889 -0.026073 -0.074871 0.037369 -0.011341 0.074908 0.15998 -0.028085 0.05698 0.00088061 -0.011215 0.024131 -0.0055014 -0.013446 -0.011052 0.095512 -0.023023 0.06739 -0.045992 
PTKVZ -0.3965 0.10422 0.018537 -0.15496 -0.051154 0.13561 -0.34834 0.022266 -0.015364 0.073279 0.14019 0.054946 0.064013 0.032395 0.0072557 0.023578 -0.11182 -0.074035 -0.0024727 0.024282 0.098273 0.08339 -0.012764 0.03523 -0.0035484 -0.034979 -0.066569 0.0015558 -0.027361 -0.04042 -0.010764 0.062957 0.056025 0.016253 -0.0031015 0.0037585 -0.069544 -0.055081 -0.048801 0.095094 0.099164 0.091752 0.13461 0.088451 -0.015099 -0.055745 -0.055662 0.062953 -0.02496 -0.0051298 0.021663 0.054054 -0.0073892 -0.10028 -0.15258 0.058917 -0.043127 0.0022168 -0.048719 0.085035 -0.034607 -0.083099 0.011315 -0.058845 -0.014908 -0.017174 0.056205 -0.015647 -0.023845 -0.036495 0.00047885 0.028696 -0.067324 -0.057577 0.074028 -0.063391 0.024776 0.083789 0.13543 -0.02725 -0.038543 -0.025289 0.071945 -0.16498 -0.005369 -0.04113 -0.057355 0.0046634 -0.074853 0.038237 -0.018546 -0.050001 0.09542 -0.044666 0.063833 0.0084248 0.071291 -0.001629 0.037185 -0.020879 -0.052544 -0.020782 0.012348 0.10323 -0.060726 0.14162 -0.0324 -0.012355 0.040026 -0.036376 -0.059133 -0.031416 -0.049671 -0.0307 0.038675 0.015078 -0.04467 0.016676 -0.046116 0.020019 0.038414 0.01549 -0.032998 0.13332 -0.026173 -0.029901 -0.018291 0.097029 -0.159 -0.003763 0.034473 -0.080361 0.034163 -0.010189 -0.0029915 -0.0040274 -0.06784 -0.068279 -0.0032596 0.010657 -0.12162 0.083074 0.055163 -0.0096708 0.040951 -0.0067313 0.042868 -0.046757 -0.024974 0.041858 0.0040668 0.10914 0.024746 0.080609 0.080925 -0.065248 -0.018854 -0.023901 0.081335 0.032815 -0.036568 0.078433 0.035273 0.084831 0.046259 0.077733 -0.043595 -0.041667 -0.043081 0.08184 0.037285 0.054845 -0.032672 0.10113 0.0093505 -0.024286 -0.060273 0.036298 0.080974 0.010657 -0.041877 0.017419 -0.090487 0.089411 -0.012023 0.097762 0.069478 0.041583 0.069764 0.016718 0.03048 -0.0075831 0.0064112 -0.095132 0.10748 0.060164 0.10005 -0.028903 0.14227 -0.088906 -0.083623 0.030271 -0.012185 0.033262 -0.049267 -0.11722 -0.036081 0.0054033 -0.037529 -0.071299 -0.11324 0.018163 -0.10169 0.058145 -0.047553 0.080435 -0.037091 -0.069088 -0.052388 -0.089675 0.052632 -0.043251 0.074774 -0.15686 0.034092 -0.037586 -0.059654 0.01239 0.01232 -0.026986 -0.053044 -0.041512 -0.08011 -0.1016 0.0049657 0.026943 0.064147 0.039387 -0.016588 0.1292 -0.046993 -0.06598 0.0046709 0.037072 0.044267 0.016975 0.043831 0.042558 -0.077144 0.0023356 0.090309 0.085916 -0.1073 -0.044872 -0.0023585 -0.035432 -0.037828 0.0022308 -0.023742 0.036733 -0.032081 0.057428 0.041949 -0.062696 -0.069178 -0.0011996 -0.071522 -0.045001 -0.0061678 0.088392 0.08191 0.02994 0.032233 -0.11006 -0.046382 -0.11786 -0.023363 0.075629 0.019609 0.067619 0.032025 0.027709 -0.043102 -0.024916 0.068587 -0.041079 0.05092 0.076156 -0.068733 0.034233 0.053133 -0.0061586 0.083208 -0.044478 -0.042331 -0.038659 0.06804 -0.0052812 -0.026548 -0.050624 
PROAV -0.028066 0.069163 -0.01661 -0.045548 -0.058654 0.11986 -0.11023 0.049277 -0.0034429 0.063484 0.11385 0.058269 0.061749 -0.020795 0.0065383 0.058794 -0.043291 -0.12011 -0.067618 -0.0029402 0.10307 -0.0086796 0.025963 0.013088 -0.079834 -0.0845 -0.085022 -0.025425 -0.062328 0.034149 -0.0065062 0.02169 0.02163 0.0113 -0.11345 -0.02395 -0.0032584 -0.13692 -0.023005 0.12074 0.046358 0.058092 0.088283 0.059301 0.021416 0.0075135 0.0033666 0.044797 0.014778 -0.020434 -0.049911 0.044859 -0.036997 -0.019786 -0.065448 -0.027709 -0.022979 -0.058477 0.0050646 0.073938 -0.024945 -0.02532 0.005612 0.0060233 -0.037759 0.018945 0.076983 0.050514 -0.094751 0.019616 0.0063429 0.026056 -0.012572 0.0027579 0.040225 0.0025251 -0.0049618 0.067876 0.075024 -0.030303 0.0024534 0.048203 0.043243 -0.079734 -0.0077687 -0.013789 -0.075473 0.1017 -0.050743 0.01563 0.028361 -0.040206 0.14857 -0.0039165 0.027245 -0.028449 0.022006 -0.0036577 -0.068134 0.034653 -0.027675 -0.010063 0.034299 0.064714 -0.0089083 0.17386 -0.051346 0.02635 0.027463 -0.050304 -0.076188 -0.053786 -0.12152 -0.0062019 0.0094659 -0.03574 0.036588 -0.021067 -0.10126 -0.0046691 0.071405 0.034712 0.0090243 0.16835 -0.077709 -0.046249 -0.021368 0.081998 -0.11249 0.088637 0.1061 -0.052989 0.059711 -0.040792 0.026988 -0.0015711 -0.074385 -0.0092068 0.047337 -0.028833 -0.13805 0.043811 0.04414 0.051302 0.072281 0.00053459 0.039858 0.03058 -0.068247 0.031391 -0.089276 0.031681 0.066692 0.063734 0.012065 -0.072072 -0.021358 0.0053469 0.099172 -0.0012308 -0.017508 -0.077027 0.034049 0.066969 0.024473 0.045757 -0.019473 0.0006473 -0.014966 0.082852 -0.061205 -0.030568 -0.056073 0.0028103 -0.049866 -0.093865 0.027973 0.0077299 0.11886 -0.019735 -0.0042278 -0.011363 -0.05139 0.040553 0.034796 0.1088 0.012025 -0.025933 0.024357 -0.024031 0.060748 -0.011217 0.042771 -0.073839 0.10772 -0.0047283 -0.021439 0.016437 0.071936 -0.087659 0.020047 -0.055438 0.035516 -0.015131 0.0092834 -0.06225 -0.043875 0.044803 -0.044768 -0.011567 -0.054726 -0.024894 -0.0053636 0.053096 -0.05534 0.033876 0.056863 -0.027482 0.064906 0.012076 -0.042682 -0.063808 0.080468 -0.09413 -0.040738 -0.065259 0.0014566 -0.026824 -0.027655 -0.0090242 -0.011865 -0.032949 -0.11772 -0.083742 0.034491 -0.061638 0.082981 -0.013439 -0.053202 0.034184 -0.056131 -0.06008 -0.00084393 0.045613 0.030051 0.042753 0.051339 0.054444 0.0079332 0.07949 -0.014789 0.049773 -0.02287 -0.033516 0.0020481 -0.014861 -0.0081424 -0.0367 0.0092546 0.0050431 -0.065192 0.064394 0.041999 -0.004766 -0.016052 0.0070673 -0.10633 -0.019295 -0.057195 0.026505 0.071705 -0.0096753 0.0059272 -0.056632 -0.057878 0.0087671 -0.0044907 0.048461 0.021983 -0.01259 0.052408 0.033906 0.0050615 -0.094718 0.061118 -0.052612 0.057778 0.13073 0.0067977 0.013796 0.017342 0.0020952 0.012743 -0.018036 -0.012746 -0.0073861 0.090694 -0.02233 0.027664 -0.063356 
PIS -0.30988 0.059494 0.0085234 -0.045096 -0.049513 0.07707 -0.27914 -0.0045678 0.030837 -0.0024296 0.075366 0.037074 -0.0091549 -0.0020547 -0.031152 0.017729 -0.056982 -0.059098 -0.076165 -0.017414 0.085455 0.068445 0.060808 0.0012433 -0.075993 -0.12286 -0.07351 -0.0011533 -0.028234 0.026271 -0.11367 0.022662 0.025791 0.10069 -0.10019 0.024875 -0.0013697 -0.094668 0.02526 0.00092672 0.040335 0.058793 0.14296 0.030255 -0.049609 0.016565 -0.00010514 0.0010786 0.040689 -0.021626 0.020984 0.10034 0.037393 -0.027492 -0.075874 0.043371 0.00036376 0.0049977 -0.06918 0.013014 0.036623 -0.016191 0.019043 0.029512 -0.089591 -0.072661 0.051067 -0.0042673 -0.038555 -0.059747 0.041161 0.01631 -0.036889 -0.02753 0.052721 0.00073448 0.025914 -0.010079 0.050219 -0.014673 0.0039421 -0.0049918 0.10454 -0.077458 0.011153 -0.045512 -0.11616 0.055218 -0.11394 -0.01984 0.069877 -0.066471 0.045328 0.013641 0.047727 0.011402 0.020232 0.038199 -0.035503 -0.033441 -0.078383 -0.021625 0.07084 0.055737 -0.1156 0.15572 -0.066639 0.093815 -0.047933 -0.031932 -0.058801 0.013317 -0.099764 -0.090552 -0.00012324 -0.019789 0.027268 -0.0005571 -0.017139 0.065431 0.066355 -0.043302 -0.0073616 0.14164 -0.010647 -0.034822 0.019112 0.10251 -0.13151 -0.034459 0.128 -0.08771 0.061274 -0.066116 -0.0035881 0.0033643 -0.082128 -0.045646 -0.0026895 -0.026029 -0.10121 -0.024158 0.055008 0.019492 0.0059385 -0.015957 0.062015 0.032196 -0.081055 -0.012343 -0.0054975 -0.022492 0.12693 0.12276 0.059703 -0.084866 -0.073289 -0.020901 0.12128 0.037101 -0.051251 -0.06626 0.0057566 0.059937 -0.056965 0.099342 -0.097111 -0.033783 -0.0045434 0.037456 -0.059715 -0.043146 0.030984 0.027875 -0.06773 -0.09177 0.081781 0.00025795 0.08491 -0.045425 0.0042762 -0.00091443 -0.14894 0.061772 0.0077545 -0.0035347 -0.0092855 -0.0288 -0.088815 -0.017744 0.038562 0.04661 0.037324 -0.057977 0.12424 0.016821 0.073174 -0.0038387 0.044394 -0.12329 -0.022174 -0.021012 0.1121 0.021052 -0.037172 -0.061492 -0.0069358 -0.0041637 -0.068805 -0.027835 -0.046524 0.061962 -0.0021923 0.020664 -0.051107 0.016043 -0.0064823 -0.044811 -0.03849 -0.030172 -0.038821 -0.05276 0.077939 -0.069539 -0.041908 -0.070445 -0.066145 0.0022049 -0.049715 0.037013 -0.0064487 -0.034427 -0.083037 -0.021823 0.13326 -0.011416 -0.03463 0.012721 -0.096881 0.067736 0.00017414 -0.086503 -0.0097386 0.0545 0.15955 0.048587 0.063202 0.13096 -0.050339 0.041176 0.053506 0.017904 -0.035615 0.0054264 0.033845 0.011938 0.037039 -0.068749 -0.01336 0.0063119 0.0066429 0.033482 0.046918 -0.10775 -0.085755 0.005634 -0.13132 -0.042767 -0.11433 -0.0011949 0.057244 -0.055077 -0.0030533 -0.14744 -0.090994 -0.018135 0.041502 -0.019623 0.046467 0.012172 -0.015225 -0.041757 -0.033149 -0.10045 0.033076 0.015948 0.12814 0.10759 -0.015416 0.079861 0.0099403 0.025303 0.061615 -0.012311 0.034153 0.011201 0.088902 0.004173 0.0083098 -0.008891 
PTKZU 0.28143 -0.11567 0.01818 0.14855 0.011843 -0.074071 0.27886 0.063301 0.0804 0.10027 0.13179 0.030747 0.18157 -0.0090821 -0.0016366 0.05616 -0.12098 -0.16007 -0.05699 -0.18168 0.048346 0.0674 0.044266 -0.035287 -0.18498 -0.084849 -0.18912 0.049893 0.051533 0.03924 -0.095332 0.051135 0.047356 0.098353 -0.061962 0.04874 0.1009 -0.23947 -0.027277 0.082724 -0.0070655 0.01992 0.089314 0.020961 0.10156 0.029642 -0.14211 0.035623 0.02029 0.04567 -0.015308 -0.010823 -0.061276 -0.084802 -0.10112 0.059713 -0.081833 -0.056259 -0.018397 0.14093 -0.030762 -0.061412 0.016437 0.009655 -0.017218 0.068361 0.025761 -0.043359 -0.032551 -0.030964 0.12975 0.085348 -0.0077903 -0.034073 0.12522 -0.016479 0.10678 0.17193 0.13822 -0.010254 0.046885 0.007233 0.017712 -0.063532 0.069157 -0.031895 -0.075999 0.2002 -0.15018 0.031704 0.0017148 -0.10128 0.12502 0.013155 0.028045 0.034644 0.095242 -0.0287 -0.12159 0.10739 -0.1252 0.01296 0.024128 0.074554 -0.11261 0.16042 -0.11615 0.076225 -0.10491 -0.01659 -0.12223 -0.022213 -0.14112 -0.0054247 -0.018556 0.051189 -0.010447 -0.059382 -0.04321 0.034649 0.084055 0.033944 -0.070046 0.19166 -0.09482 -0.027829 0.0049058 0.083278 -0.027951 0.039705 0.13782 -0.10205 -0.013224 -0.14765 0.02767 -0.049018 -0.2243 -0.029759 -0.057358 -0.011262 -0.11397 0.12742 0.067305 -0.10445 0.16137 -0.049 0.11241 0.029873 -0.11806 0.041912 -0.0053124 0.062527 0.015048 0.0091211 0.0053598 -0.099113 -0.032474 0.014087 0.091231 0.0087684 -0.059038 -0.084791 0.0057838 0.10762 0.013855 0.061366 -0.12008 -0.040931 -0.047024 0.15489 3.0675e-06 0.013125 -0.035355 0.037757 -0.12971 -0.2341 0.063004 0.079356 0.10646 -0.065834 0.0035206 0.046554 -0.17473 0.15149 0.035036 0.20064 0.019734 0.00083568 -0.04349 -0.022049 0.060717 0.071597 -0.078215 -0.1168 0.11844 -0.0044312 0.022355 0.039161 0.062105 -0.062836 -0.06909 -0.099632 -0.044847 0.015957 0.089402 -0.0010006 -0.10861 0.0035428 -0.050039 -0.038218 -0.15705 0.013832 -0.12519 0.0014085 -0.068111 -0.045091 -0.085478 -0.074223 0.038791 0.10131 -0.081554 -0.13359 0.14709 -0.18012 0.05951 -0.092016 0.0502 -0.014349 0.034734 -0.00029924 -0.023395 -0.03222 -0.095782 -0.15563 0.14909 -0.04465 0.013485 -0.17877 -0.044363 0.093761 -0.089271 -0.086646 -0.046838 -0.0099159 0.0006143 -0.010111 -0.025331 0.062673 0.00742 0.11572 0.018267 0.030512 -0.12608 -0.059524 -0.034681 -0.01845 0.011422 -0.061816 0.016182 -0.043445 -0.042383 0.05285 0.055833 -0.063328 -0.033109 0.019935 -0.090783 -0.058626 0.012468 0.10228 0.18553 -0.078201 -0.088375 -0.098347 -0.12006 0.049595 -0.0090849 0.038802 -0.022496 0.036658 -0.042345 -0.0012213 -0.11187 -0.10503 0.11152 -0.05221 0.086141 0.1272 0.034005 0.021326 0.01985 0.093846 -0.12082 -0.010182 0.0068878 -0.080321 0.21747 -0.14178 0.14579 -0.025911 
PDS -0.27843 0.09487 -0.055344 -0.09028 -0.01204 0.14714 -0.36705 -0.03399 -0.018056 0.024379 0.032956 0.015268 0.022342 -0.024407 -0.04543 0.027368 -0.0533 -0.055171 -0.084573 -0.017362 0.10722 -0.00075731 0.070703 0.0041421 -0.10266 -0.10471 -0.071973 -0.0099696 -0.032039 0.063822 -0.05044 0.0072096 0.035567 0.10568 -0.098919 -0.0023583 0.034305 -0.078875 -0.019085 0.035612 -0.016414 0.05075 0.092252 0.036184 0.010467 0.0062632 0.028079 -0.013628 0.039442 -0.034747 -0.031093 0.043099 0.024852 0.0044021 -0.034314 0.032549 -0.013501 -0.048718 -0.002199 0.026958 0.028329 -0.002035 -0.012916 0.017225 -0.074319 -0.035142 0.095829 0.027108 -0.019586 -0.016192 0.049727 0.014673 0.021468 -0.013336 0.05806 0.0020733 0.01881 -0.048049 0.024879 -0.036886 0.028906 0.043859 0.050123 -0.04103 0.021179 -0.035573 -0.090422 0.061772 -0.044307 -0.019915 0.03588 -0.047945 0.073457 -0.019193 0.063624 0.035529 -0.01024 0.060267 -0.077239 0.00012991 -0.064742 -0.062033 0.036148 0.045577 -0.061238 0.12655 -0.021445 0.1047 -0.023971 -0.021374 -0.02742 0.017559 -0.093532 -0.072357 0.013107 0.0078544 0.050274 -0.015066 -0.057963 0.017449 0.076732 -0.0083792 0.055878 0.10822 -0.010135 -0.025101 0.011335 0.11607 -0.11908 0.03653 0.15577 -0.060402 0.032481 -0.040054 0.041838 0.012357 -0.057755 0.018576 0.020005 -0.032175 -0.085096 -0.0068013 0.013949 0.058455 0.062095 -0.018136 0.048661 0.042873 -0.07171 -0.037947 -0.027472 -0.043071 0.088393 0.065243 0.051316 -0.075971 -0.051071 -0.0005331 0.098219 -0.0040118 -0.072899 -0.10131 -0.0060817 0.054616 -0.019328 0.016049 -0.0323 -0.019349 0.02514 0.050064 -0.07613 -0.040927 0.0073526 0.014675 -0.07046 -0.12183 0.068958 0.0022487 0.077488 -0.035678 0.0014392 -0.011957 -0.10531 0.053249 -0.0067132 0.045655 0.0032815 -0.046115 -0.034753 -0.059036 0.020984 0.035457 0.026987 -0.067812 0.09529 0.0012148 -0.0090697 0.020446 0.027321 -0.08262 0.049696 -0.054662 0.10506 -0.023453 -0.054148 -0.075551 -0.0087617 0.0042895 -0.091812 0.0034226 -0.029644 0.057151 -0.043991 0.026616 -0.028969 0.046108 0.035688 -0.016333 0.035738 -0.0049729 -0.055615 -0.0059794 0.041692 -0.084596 -0.059134 -0.056931 -0.057505 -0.046794 -0.011612 0.013321 -0.0067362 -0.052236 -0.075156 -0.05048 0.060136 -0.072463 0.058451 0.02616 -0.062615 0.048606 -0.0058501 -0.036552 0.013402 0.015517 0.070257 0.042198 0.042363 0.061067 -0.0031966 0.04397 0.0014852 -0.017336 -0.022392 -0.0024481 0.063636 0.00018597 0.034421 -0.0261 -0.011175 0.047449 -0.024288 0.03393 0.032525 -0.038587 -0.044411 0.015963 -0.097249 -0.017369 -0.069835 -0.0013798 0.052452 -0.029594 -0.0092357 -0.080098 -0.04062 0.0080121 0.028532 0.025478 0.04092 -0.017284 -0.037382 -0.030902 0.0060578 -0.087431 0.031794 -0.00060846 0.08263 0.15087 -0.0033779 0.039793 0.0050838 -0.075924 0.025353 0.0092683 -0.011152 -0.033215 0.067655 0.0015892 0.036892 -0.035589 
VAINF 0.15391 -0.049997 -0.018483 0.092607 -0.011918 -0.17176 0.20828 -0.050917 -0.010301 0.051924 0.019895 0.097336 -0.047357 0.004554 -0.093296 0.071672 0.02256 -0.031583 -0.12577 0.077813 0.057607 -0.056392 0.2128 -0.074863 -0.068672 -0.21218 -0.045078 -0.16097 -0.10431 0.1095 -0.10536 -0.086287 -0.12603 0.088056 -0.25991 -0.039486 -0.037723 -0.0092066 0.12596 -0.11606 0.037742 0.0010288 0.11538 0.022684 -0.050258 0.056439 0.18202 -0.03421 0.063968 -0.052776 -0.067175 0.034925 -0.026013 0.12238 0.0093768 0.023657 -0.020583 -0.057611 -0.064225 0.00030792 -0.017773 0.13902 0.048422 0.055479 -0.14098 -0.11846 0.11285 0.16392 -0.066476 0.042284 -0.016103 -0.086522 0.020257 0.063808 -0.034651 -0.024982 0.0097066 -0.080237 -0.019505 -0.088987 0.095683 0.041518 0.11886 0.0082905 -0.026188 0.00048034 -0.087254 0.043005 0.072655 -0.006689 0.14757 0.041199 0.13861 -0.021276 0.034608 -0.053342 -0.010333 0.09646 -0.16299 0.0069188 0.042338 -0.076179 0.11798 0.017281 0.031405 0.20666 -0.048268 0.19325 -0.024715 -0.090578 0.020413 -0.058985 -0.06404 -0.11843 -0.013969 -0.15307 0.1741 -0.026912 -0.094343 -0.0091239 -0.04184 -0.12838 0.17089 0.044388 -0.033883 -0.13455 -0.060146 0.046804 -0.16157 0.15484 0.16013 0.021129 0.069128 0.015871 0.10186 0.036441 0.10141 0.094454 0.19298 -0.20424 -0.14067 -0.078153 0.026041 0.15221 0.055305 0.018093 0.10663 0.14288 -0.15872 -0.020611 -0.19486 -0.17002 0.18451 0.015873 0.0084348 -0.089874 -0.018489 0.046194 0.09635 -0.030734 -0.089258 -0.14882 0.028114 -0.0029267 -0.038013 0.0042036 0.028463 -0.035741 0.17828 0.091219 -0.15671 -0.073163 0.079294 -0.12554 -0.017578 -0.15201 0.03771 -0.081983 0.13089 0.073576 0.0046864 -0.061255 -0.020226 -0.086501 -0.015017 -0.059248 -0.085256 -0.15445 -0.089107 -0.13777 0.15247 0.092592 0.090158 -0.076039 0.075056 -0.040701 -0.096484 -0.026432 0.064718 -0.088528 0.17711 -0.09737 0.3413 -0.13005 -0.12238 -0.066313 -0.047731 -0.035232 -0.060617 0.076902 -0.098704 0.038759 -0.035325 0.046505 -0.018166 0.014402 0.046012 0.018408 0.034202 0.019593 -0.035035 -0.042591 -0.014741 -0.014285 -0.094325 -0.063637 0.096503 -0.033845 -0.058597 0.058092 -0.0042457 -0.010485 -0.088902 -0.0072775 0.066687 -0.10521 0.0094824 0.019753 -0.04218 0.011738 -0.0036556 0.015019 0.031744 0.1404 0.22564 0.061866 0.10038 0.1087 0.099057 0.11859 -0.039651 -0.076508 -0.01344 0.036064 0.12753 0.020292 0.03711 -0.076904 0.042373 0.039255 -0.15546 -0.021964 0.00069171 0.064568 -0.034976 -0.0031655 -0.16572 0.025916 -0.18838 -0.076746 -0.022008 -0.06432 0.039627 -0.10276 0.042235 0.036341 0.012657 0.055172 0.071364 -0.045711 0.027411 0.032047 0.037236 -0.079842 -0.059637 -0.0039485 0.0099353 0.14947 0.064325 0.022197 -0.055163 -0.028066 -0.030765 0.0084878 -0.053108 -0.076252 -0.15334 0.1156 -0.086442 -0.03199 
PDAT -0.22065 0.080764 -0.0084384 -0.097223 -0.031436 0.092101 -0.27695 -0.016605 0.0028076 0.039153 0.032056 -0.0026247 0.040336 -0.026437 -0.00074201 0.025962 -0.04248 -0.027818 -0.038194 0.0089894 0.053009 -0.0093814 0.012269 0.014474 -0.040484 -0.080888 -0.052315 -0.026707 -0.063616 0.014993 -0.018206 0.012313 0.01101 0.014482 -0.10643 -0.020879 -0.014267 -0.075799 -0.020535 0.036796 0.016774 0.035968 0.10161 0.052566 -0.025176 0.0060533 0.026128 0.051721 0.014554 -0.018398 -0.049289 0.04325 -0.049548 0.024975 0.0078435 0.028023 -0.027335 -0.034914 0.019853 0.059301 -0.037458 0.029382 0.020645 0.0063238 -0.022609 -0.047664 0.065542 0.050052 -0.05703 0.025778 0.031753 0.013222 -0.051203 -0.025399 0.024753 -0.034952 0.015755 0.039649 0.082434 -0.060519 0.063244 0.025547 0.043982 -0.049539 -0.033006 -0.023461 -0.045245 0.032206 -0.015125 0.00062057 0.013302 0.010561 0.093671 -0.0012349 0.050284 -0.036953 0.0099353 0.017181 -0.065472 0.034421 0.023629 -0.031253 0.02912 0.047457 0.025246 0.15685 -0.082561 0.073427 0.02565 -0.047035 -0.021891 -0.02987 -0.078606 -0.027268 0.039101 -0.050052 0.054629 0.001195 -0.05544 -0.018586 0.017923 -0.060766 0.082804 0.059133 -0.055715 -0.047923 -0.020224 0.055347 -0.10109 0.087515 0.10754 0.014735 0.018062 -0.043059 0.029898 -0.0075105 -0.024985 0.0012441 0.087692 -0.086753 -0.14706 0.057146 0.073979 0.050745 0.054731 0.024611 0.064826 0.052794 -0.067569 0.031984 -0.05935 0.0038553 0.071501 0.043403 0.032539 -0.071376 -0.024611 -0.0088696 0.064324 0.019276 -0.034719 -0.076863 0.040432 0.014187 -0.0014767 0.038343 -0.011207 -0.062895 0.063745 0.0842 -0.048264 0.0089883 -0.0081654 -0.007048 -0.027142 -0.10247 0.013231 0.011676 0.1169 0.029855 -0.013417 -0.031466 -0.055622 -0.0054053 0.016149 0.061834 0.005016 -0.066271 0.021322 -0.022015 0.058324 0.022757 0.059411 -0.066193 0.092804 -0.0050911 -0.0074797 -0.020401 0.090865 -0.074357 0.04807 -0.052447 0.087195 -0.030915 -0.055897 -0.036481 -0.04807 -0.0092009 -0.033099 -0.003758 -0.066194 0.028038 -0.026394 0.042896 -0.033802 0.031086 -0.010412 -0.061469 0.021747 -0.024994 -0.014923 -0.064644 0.049357 -0.079277 -0.014872 -0.048361 0.02965 -0.042687 -0.0054126 0.025325 -0.028938 -0.018041 -0.090565 -0.053207 0.045694 -0.066082 0.04559 -0.024176 -0.026289 0.062986 -0.011486 -0.023491 -0.0041376 0.012182 0.078127 0.016126 0.04631 0.028553 0.040115 0.059406 -0.041794 0.010851 -0.046355 -0.0088305 0.015761 -0.0024497 0.032948 -0.066625 0.0087758 0.029594 -0.066738 0.016997 0.044121 0.010017 0.0059059 -0.014536 -0.074084 -0.014072 -0.085864 0.0053416 0.0037609 -0.048313 0.00069238 -0.092954 -0.014932 -0.017621 0.023162 0.089467 0.03552 0.0072575 0.014069 0.0073655 -0.013992 -0.080817 0.035769 -0.025156 -0.0067029 0.11553 0.014472 -0.0086605 0.031163 -8.7078e-05 0.04272 0.0083507 -0.020216 -0.019962 -0.020371 0.0024192 -0.02586 -0.015501 
KOKOM -0.17204 0.094934 0.015341 -0.11461 -0.0026975 0.16727 -0.29324 -0.017555 -0.017401 0.066907 0.047927 0.013303 -0.035473 0.0017908 -0.01501 0.045028 -0.062243 -0.071706 -0.067555 0.01504 0.10165 -0.060381 0.045721 -0.024191 -0.034724 -0.029339 -0.025076 0.013352 -0.078751 -0.011205 0.049397 0.06854 0.032867 0.067403 -0.081813 -0.03464 -0.010605 -0.082829 0.0070166 0.073267 0.025636 0.048003 0.1115 0.066219 0.031206 0.0019657 -0.0054542 0.0079752 0.014541 -0.046585 -0.050426 0.026393 0.0078225 0.018898 -0.052891 0.040564 -0.020229 -0.058902 0.021661 0.067477 -0.05598 -0.013332 -0.0053903 -0.02059 -0.04502 -0.019728 0.03067 0.079122 -0.010963 0.037984 0.010216 -0.0018623 -0.025822 -0.015393 0.043695 -0.031355 -0.011754 -0.0099326 0.026309 -0.059139 0.044056 0.083633 0.046531 -0.077305 0.014403 0.0011635 -0.031083 0.075335 0.0053363 0.00098853 0.012167 -0.0425 0.099658 -0.080033 0.086319 -0.027731 0.011883 0.021255 -0.04324 0.018281 -0.037006 -0.011288 0.030255 0.033852 0.0038632 0.16529 0.015681 0.068827 -0.0042403 -0.069266 0.0098741 -0.018801 -0.068529 -0.034523 0.048009 -0.0060425 0.023347 -0.057705 -0.10126 -0.0061998 0.10067 0.017278 0.068829 0.11346 -0.028581 -0.012842 -0.040893 0.043307 -0.15079 0.074326 0.10859 -0.026801 0.061183 -0.018856 0.033485 -0.059768 -0.0047709 0.0057989 0.047768 -0.069857 -0.16171 0.062812 0.067778 0.043665 0.065383 0.0057063 0.093595 0.048775 -0.04534 -0.0094174 -0.0646 0.02364 0.02802 0.0096388 0.064478 -0.07611 -0.027429 0.01116 0.13085 -0.0014005 -0.043217 -0.08204 0.032733 0.081097 0.029733 0.0099709 -0.022798 0.018158 -0.0053301 0.14052 -0.062161 0.0064165 -0.071764 -0.0095186 -0.042061 -0.095366 0.011 0.016709 0.10117 0.063568 -0.024868 -0.048376 -0.026744 0.01568 -0.014234 0.12374 -0.018081 -0.060846 0.079032 -0.051031 0.042174 0.019554 0.059758 -0.059215 0.13692 -0.049795 -0.043662 -0.018645 0.090796 -0.071183 0.070696 -0.061813 0.075035 -0.0033501 0.0074725 -0.11387 -0.039222 0.074569 -0.043617 -0.032643 -0.088671 0.0038543 -0.030364 0.034541 -0.051509 0.061555 0.035535 -0.022983 0.10602 -0.0042354 -0.0031782 -0.062197 0.072613 -0.073417 -0.024128 -0.018176 -0.016023 -0.052738 -0.024958 -0.011361 -0.02186 -0.081235 -0.077507 -0.042401 -0.012772 -0.075208 0.085545 -0.0057607 -0.020286 0.064531 -0.042382 -0.035233 0.0053963 -0.023184 0.05931 0.025508 0.061414 -0.0088119 -0.027361 0.02156 0.011445 0.044189 -0.071412 -0.014491 0.061772 0.0045342 0.037778 -0.054519 -0.034546 0.10046 -0.072159 0.048325 0.041717 0.013208 -0.037892 0.039179 -0.084622 -0.0059997 -0.055652 0.045466 0.019864 -0.00084433 0.037346 -0.044852 -0.052153 -0.005875 -0.019808 0.10333 0.035148 0.0072087 -0.019701 0.052519 -0.0064507 -0.073346 0.022652 -0.061448 0.066162 0.094517 0.0066108 -0.030097 0.022578 -0.043256 0.040439 -0.017114 -0.07236 -0.030438 -0.002792 -0.028196 -0.020862 -0.075559 
PWAV -0.12599 0.10934 -0.093537 -0.077141 -0.047094 0.18557 -0.18358 0.032215 0.031206 0.0076441 0.036839 0.015963 0.1171 -0.054168 -0.024271 0.084177 0.030233 -0.10621 -0.074745 -0.046684 0.0537 0.0093708 0.036854 -0.031322 -0.13666 -0.070118 -0.11188 -0.03 -0.046672 0.066736 -0.047575 -0.0010449 -0.00034612 0.044446 -0.11106 0.019285 0.042267 -0.16761 -0.039774 0.10525 -0.024107 0.059795 0.058035 0.10009 0.019641 0.028598 0.015087 0.04467 -0.0054591 -0.017023 -0.084791 0.052953 -0.020656 0.044724 0.0069092 -0.085575 -0.015649 -0.082077 0.061198 0.033635 0.01801 -0.01323 -0.03409 0.039266 -0.024268 0.084431 0.042088 0.067484 -0.085533 0.040972 0.0072758 0.029542 0.024582 0.02642 0.068942 0.041214 -0.012561 0.053616 0.049584 -0.036378 0.011832 0.074851 0.00094356 0.025363 0.014766 -0.027739 -0.083108 0.1205 -0.073762 -0.011256 0.048916 -0.043273 0.12274 0.038249 -0.040423 0.0019066 -0.026437 0.023752 -0.13277 0.076668 -0.019202 -0.013389 0.037723 0.034674 0.0078948 0.13484 -0.070115 0.085008 0.018155 -0.0050687 -0.06512 -0.026298 -0.17536 0.017666 -0.034214 -0.036725 0.072609 0.01481 -0.095541 -0.022968 0.015821 0.0039927 0.047727 0.17822 -0.096375 -0.046143 0.042277 0.093751 -0.055692 0.1067 0.15691 -0.038261 0.054589 -0.10946 0.046291 0.027467 -0.12722 0.017617 0.038356 -0.03503 -0.10614 0.051053 0.044082 0.13652 0.080848 0.025173 0.025136 0.043723 -0.083904 0.0075324 -0.072602 -0.06238 0.10855 0.04368 -0.016638 -0.054434 -0.04024 -0.016736 0.079313 0.022573 -0.052035 -0.15631 0.023654 0.039522 -0.035671 0.0001422 0.028326 -0.0080941 -0.0035323 0.04092 -0.10965 -0.070902 -0.012169 -0.022216 -0.055229 -0.13512 0.092095 0.0082603 0.10372 -0.071691 0.029626 0.03012 -0.051779 0.03701 0.06202 0.10787 -0.035671 -0.058259 -0.010857 -0.039803 0.082431 -0.021174 0.060072 -0.051898 0.091948 -0.050095 -0.072717 0.063382 -0.015148 -0.03128 0.03369 -0.11962 0.030893 -0.044064 0.041973 -0.0069239 -0.07195 0.022938 -0.075287 -0.0062603 -0.015271 0.0046516 0.043692 0.022222 -0.029397 0.012834 0.078765 -0.0076686 0.061921 0.096723 -0.087923 -0.065014 0.062483 -0.055713 -0.050826 -0.099877 0.029931 -0.090534 -0.011134 0.027954 0.031638 -0.038852 -0.11047 -0.064751 0.092142 -0.11821 0.057967 -0.049279 -0.057427 0.021428 -0.0093333 -0.034404 -0.034617 0.059483 0.03458 0.037916 0.027975 0.070696 0.057571 0.096487 -0.0815 -0.017803 0.0067039 0.0059837 0.0042424 0.009809 0.035623 -0.035117 -0.0085363 -0.062374 -0.062996 0.044153 0.033541 -0.016933 0.00665 0.0051322 -0.073543 -0.052004 -0.042964 -0.0015672 0.082507 -0.077285 -0.036152 -0.048001 -0.034016 0.02763 0.052983 -0.0050485 0.015831 -0.041675 0.059527 -0.024743 0.016507 -0.12745 0.036433 -0.056885 0.037751 0.14583 0.036975 0.024525 -0.016073 -0.044974 -0.014527 0.0087641 0.0062177 0.0036396 0.12225 -0.036926 0.097649 -0.031658 
